2.224131640625000000e+04
2.223640625000000000e+04
2.232352343750000000e+04
2.255133203125000000e+04
2.258768945312500000e+04
2.192470703125000000e+04
2.234830273437500000e+04
2.201822851562500000e+04
2.214942382812500000e+04
2.072063281250000000e+04
2.015764453125000000e+04
1.997913281250000000e+04
1.885603125000000000e+04
1.885502148437500000e+04
1.792304101562500000e+04
1.740269726562500000e+04
1.698280273437500000e+04
1.624132519531250000e+04
1.551945312500000000e+04
1.524687695312500000e+04
1.475745312500000000e+04
1.375622558593750000e+04
1.283846191406250000e+04
1.269550781250000000e+04
1.215225488281250000e+04
1.145189453125000000e+04
1.075484765625000000e+04
1.054141015625000000e+04
9.642276367187500000e+03
9.042141601562500000e+03
8.668865234375000000e+03
8.025508789062500000e+03
7.500131835937500000e+03
6.684758789062500000e+03
6.141666503906250000e+03
5.692084472656250000e+03
5.117606933593750000e+03
4.389564941406250000e+03
3.948422119140625000e+03
3.187798339843750000e+03
2.784157470703125000e+03
2.235598876953125000e+03
1.616863525390625000e+03
1.155019897460937500e+03
4.769912414550781250e+02
-5.519295120239257812e+01
-6.870894165039062500e+02
-1.008317321777343750e+03
-1.252280151367187500e+03
-1.343678222656250000e+03
-1.457490600585937500e+03
-1.440618652343750000e+03
-1.650052001953125000e+03
-1.527631958007812500e+03
-1.249475097656250000e+03
-1.134878540039062500e+03
-9.699968872070312500e+02
-7.192681274414062500e+02
-4.788277893066406250e+02
-4.786329269409179688e+01
1.912817535400390625e+02
5.548882446289062500e+02
5.653624267578125000e+02
7.852232055664062500e+02
7.140281982421875000e+02
7.730675659179687500e+02
6.138957519531250000e+02
4.409079895019531250e+02
3.147336120605468750e+02
1.201079711914062500e+02
2.314167594909667969e+01
-1.510872955322265625e+02
-3.666539001464843750e+02
-3.951716613769531250e+02
-2.623538513183593750e+02
-3.145555725097656250e+02
-1.049797744750976562e+02
9.650276947021484375e+01
2.279210968017578125e+02
2.460552978515625000e+02
2.479450073242187500e+02
2.275341796875000000e+02
2.111840515136718750e+02
1.144662780761718750e+02
-6.598566436767578125e+01
-1.524480438232421875e+02
-1.745622444152832031e+01
-7.229162693023681641e+00
1.401295280456542969e+01
2.636808471679687500e+02
2.072347564697265625e+02
2.140014038085937500e+02
2.045412750244140625e+02
1.368316955566406250e+02
-2.643651962280273438e+01
-3.849552536010742188e+01
9.669642448425292969e+00
7.922861480712890625e+01
2.605932922363281250e+02
1.480639495849609375e+02
2.470175018310546875e+02
2.007195434570312500e+02
2.446301651000976562e+01
-1.757728099822998047e+00
7.796485900878906250e+01
1.083025512695312500e+02
-1.336990642547607422e+01
-5.360748672485351562e+01
5.386349868774414062e+01
1.919517517089843750e+02
1.971811523437500000e+02
2.232003936767578125e+02
7.915856170654296875e+01
9.623119354248046875e+01
3.227222824096679688e+01
-8.399328231811523438e+00
5.133795166015625000e+01
2.192299499511718750e+02
1.680028381347656250e+02
1.102052764892578125e+02
9.174762725830078125e+01
3.114140701293945312e+01
-3.928903198242187500e+01
5.926617050170898438e+01
6.220980072021484375e+01
9.530220794677734375e+01
2.028394927978515625e+02
2.420777435302734375e+02
2.076658172607421875e+02
1.099719619750976562e+02
5.473244476318359375e+01
-8.027140808105468750e+01
-1.024220352172851562e+02
-1.595421295166015625e+02
3.112540245056152344e+00
2.419583282470703125e+02
2.816927490234375000e+02
2.267602691650390625e+02
2.248643188476562500e+02
2.257742309570312500e+02
2.374299430847167969e+01
-6.328806304931640625e+01
-2.980048179626464844e+01
-7.635231018066406250e+01
5.616103744506835938e+01
2.051287994384765625e+02
1.983509521484375000e+02
1.858960113525390625e+02
1.508834228515625000e+02
2.451225471496582031e+01
2.494834709167480469e+01
-5.398663711547851562e+01
5.657008743286132812e+01
9.536354827880859375e+01
2.904365539550781250e+02
4.131622009277343750e+02
3.084707641601562500e+02
2.686520690917968750e+02
9.912127685546875000e+01
3.546091842651367188e+01
6.846647644042968750e+01
-6.241062545776367188e+01
2.136341476440429688e+01
6.414759063720703125e+01
1.153638000488281250e+02
2.040484161376953125e+02
2.110314788818359375e+02
1.388786163330078125e+02
-7.294307708740234375e+01
-7.016699218750000000e+01
-2.508977127075195312e+01
-2.154474830627441406e+01
1.372691650390625000e+02
2.229896697998046875e+02
2.178091430664062500e+02
2.134516754150390625e+02
1.784539642333984375e+02
-1.150109252929687500e+02
-1.847145843505859375e+02
-1.971259307861328125e+02
-1.319302825927734375e+02
1.648262786865234375e+01
1.603408050537109375e+02
2.834584655761718750e+02
2.143152770996093750e+02
1.299676513671875000e+02
6.931725311279296875e+01
8.262290954589843750e+01
1.095276641845703125e+02
-4.990234375000000000e-01
1.030029220581054688e+02
8.589463043212890625e+01
8.579945373535156250e+01
1.025876922607421875e+02
7.116148376464843750e+01
-8.327133178710937500e+00
-2.804956912994384766e+00
2.269178924560546875e+02
1.336534271240234375e+02
1.833498840332031250e+02
-4.034522628784179688e+01
-3.561793136596679688e+01
9.985251617431640625e+01
1.329778099060058594e+01
9.197095489501953125e+01
1.088383636474609375e+02
7.828113555908203125e+01
1.017136154174804688e+02
2.319193840026855469e+00
1.252497482299804688e+02
1.435975189208984375e+02
4.914100646972656250e+01
3.646395206451416016e+00
5.117834854125976562e+01
1.774876403808593750e+02
1.988292694091796875e+02
1.099961853027343750e+02
1.171867465972900391e+01
7.751367187500000000e+01
3.589147567749023438e+01
7.358343505859375000e+01
1.882775726318359375e+02
1.906918945312500000e+02
9.843059539794921875e+01
3.401477050781250000e+01
4.437906646728515625e+01
9.983928680419921875e+01
1.543213806152343750e+02
1.600372886657714844e+01
1.283977050781250000e+02
1.224716339111328125e+02
2.213627815246582031e+01
3.196873092651367188e+01
-4.317937493324279785e-01
1.643534545898437500e+02
1.668889923095703125e+02
1.365433654785156250e+02
3.326853561401367188e+01
8.406869888305664062e+00
-4.767102718353271484e+00
2.296641693115234375e+02
2.821737060546875000e+02
1.599060821533203125e+02
1.414205932617187500e+02
-5.030211639404296875e+01
-1.357300567626953125e+02
-1.206821594238281250e+02
-2.891708183288574219e+01
9.100877380371093750e+01
5.857820129394531250e+01
3.026934509277343750e+02
3.926531372070312500e+02
2.947739257812500000e+02
2.407873535156250000e+02
1.442265930175781250e+02
-4.929194259643554688e+01
-1.041739807128906250e+02
-1.771819305419921875e+02
-1.316226959228515625e+02
-2.453125081956386566e-02
5.327745056152343750e+01
2.269832305908203125e+02
4.039141845703125000e+02
4.124675903320312500e+02
3.505527648925781250e+02
2.418614807128906250e+02
2.283208312988281250e+02
6.688347625732421875e+01
-5.907637405395507812e+01
-1.279730377197265625e+02
-4.442297363281250000e+01
-1.548294544219970703e+01
1.969698028564453125e+02
2.174277801513671875e+02
1.947209014892578125e+02
2.505058441162109375e+02
-2.080424308776855469e+01
-3.391547012329101562e+01
1.066045188903808594e+01
7.052253723144531250e+01
2.362560424804687500e+02
2.889928588867187500e+02
3.264676818847656250e+02
2.452024993896484375e+02
1.141080780029296875e+02
-1.059314880371093750e+02
-1.573149719238281250e+02
-1.850011138916015625e+02
-1.760809936523437500e+02
-3.505066299438476562e+01
1.796499481201171875e+02
2.369363250732421875e+02
2.650150146484375000e+02
1.725104217529296875e+02
-6.054291915893554688e+01
2.954849624633789062e+01
-1.443719387054443359e+01
1.336911315917968750e+02
1.395053710937500000e+02
1.047397232055664062e+02
2.193628997802734375e+02
1.686607170104980469e+01
5.100883007049560547e+00
1.120852737426757812e+02
5.243121337890625000e+01
1.605697937011718750e+02
1.409638214111328125e+02
4.946810913085937500e+01
-5.205039978027343750e+01
5.464051818847656250e+01
2.410233459472656250e+02
2.033014221191406250e+02
2.483571777343750000e+02
2.059087829589843750e+02
-1.389086723327636719e+01
-8.554590225219726562e+00
-5.015047073364257812e+00
-1.980824279785156250e+01
1.180738601684570312e+02
2.249017028808593750e+02
1.436042938232421875e+02
7.565262603759765625e+01
-1.209425735473632812e+02
-6.530908966064453125e+01
-3.629622268676757812e+01
3.697257614135742188e+01
1.750172576904296875e+02
1.919186401367187500e+02
1.568219146728515625e+02
6.632061004638671875e+01
1.915337219238281250e+02
8.811187744140625000e+01
-1.497555923461914062e+01
-1.914152908325195312e+01
-4.848360443115234375e+01
1.399017181396484375e+02
1.632769470214843750e+02
1.689353179931640625e+01
1.134503631591796875e+02
8.847160339355468750e+01
1.501989841461181641e+01
1.008941459655761719e+01
5.681205749511718750e+01
1.406940460205078125e+02
1.565424194335937500e+02
1.251456527709960938e+02
2.336575889587402344e+01
-6.343342971801757812e+01
6.131592559814453125e+01
2.131484794616699219e+01
1.201638412475585938e+02
1.482541198730468750e+02
5.382387542724609375e+01
-3.983321380615234375e+01
1.073231964111328125e+02
-1.614945983886718750e+01
-2.968331336975097656e+01
3.687109470367431641e+00
1.799603881835937500e+02
2.064254455566406250e+02
1.873390655517578125e+02
1.917726135253906250e+02
2.952215576171875000e+01
-3.089523124694824219e+01
-3.211134338378906250e+01
9.077720642089843750e+01
5.463904953002929688e+01
1.802824096679687500e+02
1.308904418945312500e+02
-3.495851135253906250e+01
1.112975006103515625e+02
-5.590976476669311523e-01
9.763055801391601562e+00
1.400945892333984375e+02
1.524477691650390625e+02
4.894783401489257812e+01
1.238962631225585938e+02
1.223018035888671875e+02
-6.669447326660156250e+01
-6.381738662719726562e+01
-1.900965881347656250e+01
9.022052764892578125e+01
8.246685028076171875e+01
1.693698577880859375e+02
2.098368988037109375e+02
1.636148681640625000e+02
1.879418334960937500e+02
1.355571866035461426e+00
-1.137365264892578125e+02
2.354610252380371094e+01
7.978164672851562500e+01
6.803871154785156250e+01
1.165201644897460938e+02
1.167768859863281250e+02
2.536063957214355469e+01
-2.153413391113281250e+01
1.688849792480468750e+02
1.152064514160156250e+02
8.895060729980468750e+01
-5.745138931274414062e+01
1.529671907424926758e+00
4.171149444580078125e+01
9.022654724121093750e+01
1.175212097167968750e+02
4.668284988403320312e+01
1.274219970703125000e+02
9.238410186767578125e+01
-6.844902801513671875e+01
-6.457103252410888672e+00
1.867539787292480469e+01
2.467169952392578125e+02
7.374050140380859375e+01
2.375352020263671875e+02
2.255971069335937500e+02
1.690475311279296875e+02
9.868194580078125000e+01
3.509206008911132812e+01
9.003376007080078125e+01
6.367161178588867188e+01
4.039415359497070312e+01
1.712909698486328125e+02
2.446452484130859375e+02
1.370455322265625000e+02
-4.276836395263671875e+01
6.972942352294921875e+01
7.814777374267578125e+01
-1.956258392333984375e+01
-1.569606590270996094e+01
4.830931472778320312e+01
2.553545227050781250e+02
1.996654815673828125e+02
2.150272979736328125e+02
2.169232177734375000e+02
9.296491241455078125e+01
3.560873031616210938e+01
-1.597555923461914062e+01
1.235697479248046875e+02
1.079001235961914062e+02
3.061921310424804688e+01
4.500149250030517578e+00
1.902655220031738281e+01
1.882433929443359375e+02
2.198430480957031250e+02
2.011215820312500000e+02
1.664817047119140625e+02
-4.927343875169754028e-02
-1.424697780609130859e+01
-2.311417388916015625e+01
5.467002487182617188e+01
1.438830718994140625e+02
2.200206298828125000e+02
1.460862121582031250e+02
1.221834869384765625e+02
-1.231094264984130859e+01
-9.008840942382812500e+01
-5.622846984863281250e+01
8.344447326660156250e+01
-5.036599159240722656e+00
9.680889892578125000e+01
9.299358367919921875e+01
5.119747161865234375e+01
1.533932495117187500e+01
1.092439727783203125e+02
1.714612579345703125e+02
1.539539031982421875e+02
3.718797302246093750e+01
-1.703895759582519531e+01
2.543424797058105469e+01
9.886779022216796875e+01
1.971231384277343750e+02
1.489381561279296875e+02
8.597592163085937500e+01
-9.613069915771484375e+01
-1.643802185058593750e+02
-1.995077819824218750e+02
-1.017051849365234375e+02
-3.622137451171875000e+01
1.458596954345703125e+02
2.366640319824218750e+02
2.296544647216796875e+02
2.419122314453125000e+02
1.712137451171875000e+02
2.497220611572265625e+01
-5.622561264038085938e+01
-8.070639801025390625e+01
-2.180489921569824219e+01
7.855562591552734375e+01
1.711596221923828125e+02
1.633527832031250000e+02
1.293834533691406250e+02
1.047182655334472656e+01
7.871046662330627441e-01
1.281353912353515625e+02
4.277822494506835938e+01
4.238931655883789062e+01
1.983940887451171875e+02
1.177893905639648438e+02
6.891184234619140625e+01
1.686353302001953125e+02
5.062038040161132812e+01
6.996710968017578125e+01
9.834667205810546875e+01
1.512297515869140625e+02
1.991838684082031250e+02
5.000745010375976562e+01
-1.952399063110351562e+01
3.270505523681640625e+01
1.000199203491210938e+02
1.366929168701171875e+02
1.227352046966552734e+01
1.425857849121093750e+02
1.522990264892578125e+02
-2.060886955261230469e+01
-1.982291221618652344e+01
-1.102393627166748047e+01
3.324839782714843750e+01
1.993352508544921875e+02
2.442140808105468750e+02
3.186642150878906250e+02
2.387075500488281250e+02
1.604892120361328125e+02
-8.600567626953125000e+01
-1.418139801025390625e+02
-7.053890991210937500e+01
-7.444977569580078125e+01
-6.257579803466796875e+00
1.021858825683593750e+02
3.183120117187500000e+02
3.164564514160156250e+02
3.041651000976562500e+02
2.140468292236328125e+02
1.243340911865234375e+02
-6.861664772033691406e+00
-2.321099243164062500e+02
-2.607337646484375000e+02
-1.963593444824218750e+02
-1.177718276977539062e+02
1.802409934997558594e+01
1.652222290039062500e+02
4.146240844726562500e+02
3.429374694824218750e+02
4.379041137695312500e+02
2.495141296386718750e+02
1.173238525390625000e+02
-7.900507354736328125e+01
-1.783665161132812500e+02
-1.889591064453125000e+02
-7.889208221435546875e+01
-7.028479003906250000e+01
1.223891983032226562e+02
1.605910339355468750e+02
1.923843688964843750e+02
7.958264160156250000e+01
-4.348097991943359375e+01
-2.567446899414062500e+01
-6.275497436523437500e+01
6.691642284393310547e+00
2.002876281738281250e+02
3.029642028808593750e+02
3.321171569824218750e+02
2.023240509033203125e+02
1.666926383972167969e+01
8.706808471679687500e+01
5.384432601928710938e+01
6.357031250000000000e+01
2.090284729003906250e+02
2.420554962158203125e+02
1.818267974853515625e+02
6.244511795043945312e+01
1.293925628662109375e+02
4.069967269897460938e+00
-2.740884399414062500e+01
4.004370117187500000e+01
1.852202606201171875e+02
1.934997711181640625e+02
2.025657043457031250e+02
5.894966125488281250e+01
1.162802338600158691e+00
1.077338027954101562e+02
4.534737396240234375e+01
8.763737487792968750e+01
2.371602478027343750e+02
1.631151733398437500e+02
2.222527313232421875e+02
5.546017456054687500e+01
1.057001037597656250e+02
4.277010726928710938e+01
-3.337977981567382812e+01
-1.176133117675781250e+02
-5.454407501220703125e+01
1.012114410400390625e+02
9.269493865966796875e+01
9.279522705078125000e+01
4.651159667968750000e+01
7.275531005859375000e+01
1.618575134277343750e+02
1.534394226074218750e+02
3.879814529418945312e+01
2.458233070373535156e+01
8.858922576904296875e+01
2.183365783691406250e+02
2.418724060058593750e+02
1.391655120849609375e+02
7.272109985351562500e+01
-4.379345893859863281e+00
-1.174096145629882812e+02
-6.464350891113281250e+01
-7.051619720458984375e+01
7.753257751464843750e+01
3.163051223754882812e+01
2.405252990722656250e+02
2.438936462402343750e+02
2.474753570556640625e+02
1.664422302246093750e+02
7.128034210205078125e+01
-5.001800918579101562e+01
-4.122649383544921875e+01
3.613162994384765625e+01
1.180608901977539062e+02
1.876121826171875000e+02
1.389397430419921875e+02
4.986444091796875000e+01
8.613368225097656250e+01
2.807558822631835938e+01
4.740109634399414062e+01
1.287428894042968750e+02
1.473040008544921875e+02
8.254807281494140625e+01
2.338256645202636719e+01
6.017299652099609375e+01
9.993793487548828125e+01
9.295612335205078125e+01
-2.312151670455932617e+00
5.124661254882812500e+01
1.452834320068359375e+02
1.822608489990234375e+02
9.002349090576171875e+01
4.090921878814697266e+00
-2.938171577453613281e+01
1.485544967651367188e+01
1.423157806396484375e+02
1.349856567382812500e+02
1.402327270507812500e+02
-6.116277313232421875e+01
-2.069494247436523438e+01
-3.295586395263671875e+01
1.023543701171875000e+02
1.305701293945312500e+02
1.170071029663085938e+02
5.886421203613281250e+01
4.999576568603515625e+00
3.858299255371093750e+01
4.821382522583007812e+01
1.414154968261718750e+02
2.966885070800781250e+02
2.042062072753906250e+02
1.573922271728515625e+02
4.707677459716796875e+01
-7.028709411621093750e+01
4.488145351409912109e+00
1.248420410156250000e+02
3.716449260711669922e+00
1.191542282104492188e+02
1.577841033935546875e+02
1.034868850708007812e+02
-1.460437488555908203e+01
-6.720310974121093750e+01
-5.216068649291992188e+01
6.509317779541015625e+01
1.734948425292968750e+02
2.172371520996093750e+02
2.821028137207031250e+02
2.895794372558593750e+02
5.068681335449218750e+01
-5.675196075439453125e+01
5.233317375183105469e+00
8.862918090820312500e+01
2.091988372802734375e+01
1.411045532226562500e+02
1.669602050781250000e+02
1.701624298095703125e+02
-6.521296977996826172e+00
1.697932052612304688e+01
-1.850935173034667969e+01
3.984716415405273438e+01
1.196090240478515625e+02
2.977796020507812500e+02
1.765309448242187500e+02
1.801122436523437500e+02
1.060440673828125000e+02
-1.129832763671875000e+02
-1.683543701171875000e+02
-1.816062316894531250e+02
-1.313485565185546875e+02
-3.148154318332672119e-01
2.277130365371704102e+00
2.304415740966796875e+02
3.952867126464843750e+02
3.747869873046875000e+02
3.929383850097656250e+02
4.046095581054687500e+02
2.336993713378906250e+02
9.097305297851562500e+01
-1.824290161132812500e+02
-2.994671630859375000e+02
-3.327409057617187500e+02
-3.689483032226562500e+02
-3.218306884765625000e+02
-1.439362030029296875e+02
5.057571792602539062e+01
2.197617797851562500e+02
3.216121520996093750e+02
3.220298156738281250e+02
3.883901672363281250e+02
2.956019897460937500e+02
1.826082305908203125e+02
3.426844406127929688e+01
-6.398809814453125000e+01
1.914634132385253906e+01
-1.826734161376953125e+01
5.684153747558593750e+01
2.248750305175781250e+02
2.912636718750000000e+02
2.570444641113281250e+02
2.248063201904296875e+02
6.722219085693359375e+01
1.343903255462646484e+01
-6.537634277343750000e+01
1.127074127197265625e+02
9.897898864746093750e+01
-4.379754066467285156e+00
5.195870590209960938e+01
3.840578079223632812e+01
1.368397674560546875e+02
2.216402740478515625e+02
1.452303924560546875e+02
6.199763870239257812e+01
9.947769165039062500e+01
6.037472724914550781e+00
-8.929761505126953125e+01
7.993139648437500000e+01
6.327244949340820312e+01
2.025079498291015625e+02
1.237831344604492188e+02
7.398303222656250000e+01
-3.700944137573242188e+01
-5.331801223754882812e+01
-6.982062530517578125e+01
-6.990064239501953125e+01
1.510630187988281250e+02
1.592706298828125000e+02
1.667541046142578125e+02
1.495913696289062500e+02
6.375799942016601562e+01
-7.988996887207031250e+01
4.804898262023925781e+00
7.441190338134765625e+01
1.598139953613281250e+02
7.314008331298828125e+01
1.434808959960937500e+02
1.504668884277343750e+02
-2.983027458190917969e+01
2.518189620971679688e+01
3.734513092041015625e+01
1.808602447509765625e+02
9.795626068115234375e+01
1.243596649169921875e+02
9.307495880126953125e+01
-1.143485870361328125e+02
-7.215538024902343750e+01
-6.243149185180664062e+01
-3.294466400146484375e+01
4.675617599487304688e+01
2.314451446533203125e+02
3.715875854492187500e+02
3.586019287109375000e+02
3.501888732910156250e+02
2.335401763916015625e+02
8.321184539794921875e+01
-7.627953338623046875e+01
-1.931006317138671875e+02
-2.455633544921875000e+02
-1.419553985595703125e+02
-8.636305999755859375e+01
2.311348915100097656e+01
1.444104766845703125e+02
3.144728698730468750e+02
3.139825134277343750e+02
2.880346374511718750e+02
1.527577209472656250e+02
9.098165893554687500e+01
-8.200945281982421875e+01
-1.819465026855468750e+02
-1.519279022216796875e+02
-9.243547821044921875e+01
7.347620391845703125e+01
1.413452453613281250e+02
6.458512544631958008e-01
7.948108673095703125e+01
1.723204193115234375e+02
-3.394225311279296875e+01
-6.970104980468750000e+01
1.145753021240234375e+02
6.637328338623046875e+01
9.828941345214843750e+01
1.365221252441406250e+02
3.956753921508789062e+01
-3.624170780181884766e+00
4.948914337158203125e+01
1.157937164306640625e+02
2.214217681884765625e+02
1.617581939697265625e+02
1.468729553222656250e+02
-2.100180816650390625e+01
-1.070674514770507812e+02
-1.073547515869140625e+02
-6.356976318359375000e+01
1.891474151611328125e+01
2.607623901367187500e+02
3.683177490234375000e+02
3.136629638671875000e+02
2.681778259277343750e+02
1.698538208007812500e+02
5.005694580078125000e+01
-1.924402427673339844e+01
-1.703158950805664062e+01
3.698391723632812500e+01
9.354010009765625000e+01
1.240076904296875000e+02
1.440539703369140625e+02
2.485184669494628906e+01
4.243792343139648438e+01
5.047606277465820312e+01
1.573662719726562500e+02
2.095263519287109375e+02
1.950307922363281250e+02
8.917448425292968750e+01
1.098392963409423828e+01
-2.789908790588378906e+01
-8.593979835510253906e+00
6.363908767700195312e+01
1.333168792724609375e+02
1.708530426025390625e+02
2.392648506164550781e+01
8.804296493530273438e+00
1.225462493896484375e+02
7.965103149414062500e+01
1.288344879150390625e+02
7.732700347900390625e+01
1.109638366699218750e+02
-1.878690719604492188e+01
1.132124099731445312e+02
6.514852905273437500e+01
5.233065414428710938e+01
1.564330444335937500e+02
1.375199584960937500e+02
9.667658233642578125e+01
2.795672798156738281e+01
-6.562567901611328125e+01
1.116600608825683594e+01
1.651155548095703125e+02
1.645949859619140625e+02
1.335453948974609375e+02
-9.626401901245117188e+00
3.454568481445312500e+01
1.009895801544189453e+01
1.423410644531250000e+02
1.794160308837890625e+02
5.491919326782226562e+01
1.615804748535156250e+02
7.930069732666015625e+01
-2.480497598648071289e+00
5.853067398071289062e+01
3.155289459228515625e+01
1.569668884277343750e+02
1.798295745849609375e+02
1.635623474121093750e+02
1.153295135498046875e+02
-1.316825866699218750e+02
-1.284146575927734375e+02
-8.440116119384765625e+01
-1.116784591674804688e+02
5.236745834350585938e+01
1.414490509033203125e+02
2.694746398925781250e+02
2.928981628417968750e+02
2.582720642089843750e+02
1.243118591308593750e+02
2.720234394073486328e+00
-1.460274810791015625e+02
-9.171315002441406250e+01
2.411981964111328125e+01
3.717733764648437500e+01
2.218154449462890625e+02
3.388020324707031250e+02
3.010152587890625000e+02
2.810064086914062500e+02
1.093059158325195312e+02
5.619305038452148438e+01
-8.006032562255859375e+01
-8.185139465332031250e+01
9.809021759033203125e+01
1.758013916015625000e+01
6.848482513427734375e+01
1.430279235839843750e+02
2.044179077148437500e+02
1.386239166259765625e+02
2.547351074218750000e+01
-1.172694492340087891e+01
4.028002166748046875e+01
1.234017639160156250e+02
2.156026306152343750e+02
1.637427368164062500e+02
6.916798400878906250e+01
-1.273138141632080078e+01
9.375181579589843750e+01
4.938025283813476562e+01
7.382087707519531250e+01
1.310359802246093750e+02
1.541658935546875000e+02
9.654530334472656250e+01
-7.925679016113281250e+01
-6.013884353637695312e+01
-1.551318454742431641e+01
1.140722274780273438e+02
2.868417167663574219e+01
1.833553771972656250e+02
1.166118621826171875e+02
7.593305969238281250e+01
1.002548522949218750e+02
-1.752039337158203125e+01
2.260807991027832031e+01
8.078423309326171875e+01
8.009332275390625000e+01
1.804885559082031250e+02
2.226903991699218750e+02
9.949347686767578125e+01
5.486573791503906250e+01
-2.224043464660644531e+01
-6.810961914062500000e+01
9.847954559326171875e+01
1.618213195800781250e+02
1.126395339965820312e+02
5.121482086181640625e+01
2.173384428024291992e+00
9.214020538330078125e+01
1.195657272338867188e+02
1.348848438262939453e+01
9.211946105957031250e+01
5.732774353027343750e+01
8.108952331542968750e+01
5.522938919067382812e+01
1.267631530761718750e+02
1.161561965942382812e+02
-4.383178710937500000e+01
8.217758941650390625e+01
1.880796966552734375e+02
7.093146514892578125e+01
1.488708953857421875e+02
1.284715728759765625e+02
9.803786277770996094e+00
-2.429586601257324219e+01
-7.278292083740234375e+01
1.043848342895507812e+02
1.561030426025390625e+02
9.889978790283203125e+01
1.813846206665039062e+01
2.549584388732910156e+01
9.823252677917480469e+00
1.251100845336914062e+02
6.882479858398437500e+01
2.610971069335937500e+02
2.265144195556640625e+02
1.379342803955078125e+02
7.208049774169921875e+01
-2.671038818359375000e+01
5.672763824462890625e+01
1.292665557861328125e+02
1.799821929931640625e+02
5.001251602172851562e+01
1.018390731811523438e+02
1.030420227050781250e+02
-5.932328033447265625e+01
-8.118225097656250000e+01
-8.243303680419921875e+01
1.864236259460449219e+01
1.185494766235351562e+02
2.295763244628906250e+02
2.207444305419921875e+02
1.258432312011718750e+02
6.035803222656250000e+01
6.847924804687500000e+01
3.608941268920898438e+01
5.494601821899414062e+01
1.507750549316406250e+02
1.389940795898437500e+02
2.545968017578125000e+02
1.995456390380859375e+02
1.837085342407226562e+01
-4.018458557128906250e+01
6.222995758056640625e+01
2.837595558166503906e+01
1.860014801025390625e+02
3.054050598144531250e+02
2.287256317138671875e+02
1.732754821777343750e+02
2.901427841186523438e+01
-3.107602500915527344e+01
-9.474871635437011719e+00
5.223401641845703125e+01
1.233892364501953125e+02
2.062979888916015625e+02
1.706542816162109375e+02
1.375111236572265625e+02
-5.735262680053710938e+01
-6.591443634033203125e+01
-1.486442470550537109e+01
2.157392883300781250e+01
1.690953521728515625e+02
1.161724014282226562e+02
1.758112945556640625e+02
1.925287322998046875e+02
2.448355913162231445e+00
-2.684300041198730469e+01
-5.950839233398437500e+01
9.114799499511718750e+01
6.558750915527343750e+01
6.486209106445312500e+01
1.436698455810546875e+02
1.111276855468750000e+02
6.977753448486328125e+01
-1.754940185546875000e+02
-2.565773620605468750e+02
-2.261497192382812500e+02
-1.739996185302734375e+02
-9.733852386474609375e+01
6.283226776123046875e+01
2.208484039306640625e+02
3.168279113769531250e+02
4.419330444335937500e+02
4.102764587402343750e+02
3.137218322753906250e+02
1.649732360839843750e+02
4.568077468872070312e+01
-4.434170532226562500e+01
-4.520941543579101562e+01
-4.191892623901367188e+01
9.393865966796875000e+01
1.305688934326171875e+02
3.750923538208007812e+01
7.077137756347656250e+01
7.500282764434814453e+00
6.912470245361328125e+01
6.033613204956054688e+01
1.652173614501953125e+02
3.008001098632812500e+02
2.931560058593750000e+02
2.014422149658203125e+02
7.459400939941406250e+01
4.415103149414062500e+01
1.449106750488281250e+02
5.882262420654296875e+01
-3.092298507690429688e+00
5.708955001831054688e+01
1.946623687744140625e+02
2.082430114746093750e+02
2.634562683105468750e+02
2.232421722412109375e+02
1.215043163299560547e+01
3.118607902526855469e+01
-1.272703170776367188e+00
7.098803710937500000e+01
1.555398406982421875e+02
2.297544708251953125e+02
2.279378051757812500e+02
1.281674652099609375e+02
-2.814694976806640625e+01
-7.256504058837890625e+01
-5.606024932861328125e+01
-6.008625793457031250e+01
7.457627105712890625e+01
1.231118850708007812e+02
1.587522125244140625e+02
1.211761627197265625e+02
-7.294229125976562500e+01
-2.098061752319335938e+01
-6.185226821899414062e+01
-1.922548413276672363e+00
1.987597808837890625e+02
1.518350982666015625e+02
1.255026016235351562e+02
1.541920776367187500e+02
5.144312667846679688e+01
-9.304174804687500000e+01
-7.036215972900390625e+01
-2.122721481323242188e+01
9.220350646972656250e+01
2.068978424072265625e+02
5.183467102050781250e+01
1.300847778320312500e+02
1.312286376953125000e+02
2.956730651855468750e+01
-1.513656234741210938e+01
1.398049774169921875e+02
3.709419250488281250e+01
8.496125030517578125e+01
1.345586090087890625e+02
2.156357574462890625e+02
1.365909576416015625e+02
9.458687591552734375e+01
-3.357581710815429688e+01
-1.030240707397460938e+02
-1.193139495849609375e+02
-7.379940795898437500e+01
6.067400741577148438e+01
1.988589477539062500e+02
3.001157836914062500e+02
3.155034484863281250e+02
2.422449951171875000e+02
1.246079864501953125e+02
-5.190494537353515625e+00
-7.505819702148437500e+01
-7.322147369384765625e+01
-1.020104885101318359e+01
8.225886535644531250e+01
1.059337768554687500e+02
1.050492095947265625e+02
2.745586013793945312e+01
8.108806610107421875e+01
7.180508422851562500e+01
1.825585784912109375e+02
2.568249511718750000e+02
2.475307769775390625e+02
8.150424957275390625e+01
-6.548397064208984375e+01
-7.136792755126953125e+01
-1.197874374389648438e+02
-1.702326965332031250e+01
6.901564025878906250e+01
2.348365783691406250e+02
3.019902343750000000e+02
3.375872497558593750e+02
2.798309631347656250e+02
1.550420227050781250e+02
9.643975067138671875e+01
-1.293708953857421875e+02
-2.235824279785156250e+02
-2.743369750976562500e+02
-3.128526611328125000e+02
-1.610487060546875000e+02
-4.470866012573242188e+01
1.883002624511718750e+02
1.997954864501953125e+02
2.136480712890625000e+02
2.836053466796875000e+02
1.252813262939453125e+02
-4.035648345947265625e+00
-6.216911697387695312e+01
-1.284942016601562500e+02
-1.502844524383544922e+01
6.575863647460937500e+01
2.952871704101562500e+02
3.179132080078125000e+02
3.255610961914062500e+02
3.116885986328125000e+02
2.358091278076171875e+02
6.755564117431640625e+01
-4.323591613769531250e+01
-2.735868072509765625e+01
8.622529602050781250e+01
4.105564880371093750e+01
9.649552917480468750e+01
4.460638046264648438e+01
1.065490264892578125e+02
8.194539642333984375e+01
5.393497467041015625e+01
4.167412185668945312e+01
5.313521957397460938e+01
1.860004425048828125e+02
2.817203369140625000e+02
8.680384826660156250e+01
1.135338973999023438e+02
1.634244728088378906e+01
-1.161649017333984375e+02
-5.062312316894531250e+01
6.349348068237304688e+01
1.190985488891601562e+02
1.639906311035156250e+02
1.036540908813476562e+02
2.334553527832031250e+01
8.681251525878906250e+01
8.465319824218750000e+01
1.502719879150390625e+01
7.531359863281250000e+01
3.405677032470703125e+01
1.879815673828125000e+02
6.087309265136718750e+01
1.311676330566406250e+02
8.346681213378906250e+01
6.276725769042968750e+01
1.911987304687500000e+02
1.195145263671875000e+02
-1.632123374938964844e+01
-6.296269989013671875e+01
5.768452453613281250e+01
1.527575073242187500e+02
9.412233734130859375e+01
1.745596466064453125e+02
1.887038116455078125e+02
1.728584442138671875e+02
4.696025466918945312e+01
5.530058670043945312e+01
1.023620834350585938e+02
4.581679916381835938e+01
-1.266397666931152344e+01
1.568828125000000000e+02
1.046626281738281250e+02
1.126953506469726562e+02
4.996728515625000000e+01
-1.950567817687988281e+01
6.655098724365234375e+01
1.111742019653320312e+02
1.332136230468750000e+02
5.714203643798828125e+01
2.981553077697753906e+00
1.649744415283203125e+02
1.546555328369140625e+02
1.758564758300781250e+02
1.169656219482421875e+02
-1.871933593750000000e+02
-2.904567260742187500e+02
-2.738351135253906250e+02
-2.258905181884765625e+02
-1.225888519287109375e+02
1.086398010253906250e+02
1.379282836914062500e+02
1.298840332031250000e+02
8.548327636718750000e+01
2.046158790588378906e+01
-7.639765167236328125e+01
5.118297958374023438e+01
1.396268005371093750e+02
1.302209777832031250e+02
3.205188751220703125e+01
1.910450363159179688e+01
1.422044067382812500e+02
1.088780746459960938e+02
1.457773437500000000e+02
-2.405867767333984375e+01
-5.085857391357421875e+01
-6.232768630981445312e+01
6.591956329345703125e+01
2.603202438354492188e+01
1.418179779052734375e+02
1.693926696777343750e+02
4.299489974975585938e+01
8.937486267089843750e+01
6.542690277099609375e+01
5.415164947509765625e+01
8.997377777099609375e+01
2.350696563720703125e+02
2.634415283203125000e+02
2.827492370605468750e+02
1.693127746582031250e+02
8.699266052246093750e+01
-1.302182006835937500e+02
-1.636477661132812500e+02
-2.105723571777343750e+02
-2.643303108215332031e+01
2.545881652832031250e+01
6.362620162963867188e+01
2.376678009033203125e+02
3.644719238281250000e+02
4.699448547363281250e+02
3.658055725097656250e+02
3.610440673828125000e+02
1.532129058837890625e+02
2.011281251907348633e+00
-8.426625061035156250e+01
-1.468808441162109375e+02
-1.283383636474609375e+02
1.957711791992187500e+01
9.837010192871093750e+01
1.954704895019531250e+02
1.589042816162109375e+02
1.491009063720703125e+02
-1.456024360656738281e+01
-1.505976390838623047e+01
1.124455165863037109e+01
4.301581573486328125e+01
1.571310424804687500e+02
2.115798492431640625e+02
2.516772308349609375e+02
1.925780181884765625e+02
1.425454559326171875e+02
-8.118544769287109375e+01
-1.877706298828125000e+02
-1.897738189697265625e+02
-1.686739807128906250e+02
-1.863173103332519531e+01
8.754940795898437500e+01
9.767218017578125000e+01
2.994756164550781250e+02
2.834001770019531250e+02
2.574917297363281250e+02
1.051379241943359375e+02
5.270117950439453125e+01
1.203079757690429688e+02
-5.402953028678894043e-01
2.273598480224609375e+01
3.478557968139648438e+01
2.266897735595703125e+02
2.112316436767578125e+02
2.310858459472656250e+02
1.118073272705078125e+02
-4.796687698364257812e+01
-1.780336914062500000e+02
3.818505096435546875e+01
-2.129537010192871094e+01
5.390581893920898438e+01
3.104139709472656250e+02
3.705903625488281250e+02
3.840462341308593750e+02
4.066119384765625000e+02
1.942674560546875000e+02
1.780270385742187500e+02
-5.456718826293945312e+01
-1.562781066894531250e+02
-2.683437500000000000e+02
-2.772934265136718750e+02
-1.576354675292968750e+02
-4.014544677734375000e+01
1.716846618652343750e+02
2.633194885253906250e+02
3.364999084472656250e+02
2.155511932373046875e+02
1.650943756103515625e+02
2.488245773315429688e+01
-1.721405944824218750e+02
-8.002915191650390625e+01
7.720920085906982422e+00
1.911234741210937500e+02
1.551102905273437500e+02
1.453764190673828125e+02
7.461557006835937500e+01
5.881501770019531250e+01
1.111687622070312500e+02
9.553751373291015625e+01
2.442407417297363281e+01
3.954534149169921875e+01
8.966219329833984375e+01
1.868496704101562500e+02
1.795321807861328125e+02
7.079618072509765625e+01
4.030202102661132812e+01
1.082649383544921875e+02
6.646396636962890625e+01
1.846369323730468750e+02
6.984902191162109375e+01
1.416926269531250000e+02
5.250637435913085938e+01
1.131375732421875000e+02
7.444007873535156250e+01
5.150825119018554688e+01
3.037246894836425781e+01
8.879734039306640625e+00
1.944192047119140625e+02
2.070611724853515625e+02
2.100769958496093750e+02
1.575673675537109375e+02
-6.295019912719726562e+01
-9.541037750244140625e+01
-1.564218444824218750e+02
-1.435756206512451172e+01
9.635706329345703125e+01
1.677408447265625000e+02
2.327662963867187500e+02
1.244698257446289062e+02
-1.326277465820312500e+02
-1.050512771606445312e+02
-1.787117309570312500e+02
-7.252415657043457031e+00
7.323379516601562500e+01
9.112583923339843750e+01
1.225990142822265625e+02
2.228674316406250000e+01
1.191778717041015625e+02
-5.315732574462890625e+01
-2.988943672180175781e+01
8.377796936035156250e+01
9.950801086425781250e+01
-1.207243156433105469e+01
-1.151741218566894531e+01
6.510243988037109375e+01
2.033470153808593750e+02
1.892147979736328125e+02
2.101373748779296875e+02
1.504525451660156250e+02
1.213867950439453125e+01
-8.978516387939453125e+01
-1.526646995544433594e+01
2.758043670654296875e+01
1.194634017944335938e+02
1.458773956298828125e+02
1.967891998291015625e+02
1.669698333740234375e+02
3.865477371215820312e+01
-2.393413543701171875e+01
-8.914245605468750000e+01
6.305797576904296875e+01
1.914851074218750000e+02
2.255653991699218750e+02
1.956161651611328125e+02
7.779986572265625000e+01
7.095900726318359375e+01
1.799326324462890625e+02
1.023370437622070312e+02
4.425590133666992188e+01
7.727082824707031250e+01
3.395821380615234375e+01
4.545984268188476562e-01
9.235618591308593750e+01
1.006202926635742188e+02
1.025135040283203125e+01
1.181991882324218750e+02
4.874955749511718750e+01
6.830319213867187500e+01
8.165247344970703125e+01
2.763041496276855469e+01
1.078154983520507812e+02
-1.620874023437500000e+01
1.324382629394531250e+02
1.356132202148437500e+02
5.508414459228515625e+01
1.049148483276367188e+02
-4.415063858032226562e+00
4.746853637695312500e+01
8.219074249267578125e+01
6.426436614990234375e+01
1.940501098632812500e+02
1.877187805175781250e+02
1.173507385253906250e+02
7.443688201904296875e+01
-4.585191726684570312e+01
-6.681739807128906250e+01
-2.439722061157226562e+01
1.729503326416015625e+02
2.079398803710937500e+02
2.124439697265625000e+02
9.700217437744140625e+01
-4.275025558471679688e+01
-7.747471618652343750e+01
-1.322536621093750000e+02
-2.160613059997558594e+01
8.705176544189453125e+01
2.585955200195312500e+02
2.870429992675781250e+02
3.407148132324218750e+02
1.784532318115234375e+02
6.057736206054687500e+01
7.762053012847900391e+00
2.469494056701660156e+01
3.266846084594726562e+01
1.803099060058593750e+02
2.742725830078125000e+02
2.358405456542968750e+02
1.538227691650390625e+02
2.512551879882812500e+01
-3.933452606201171875e+01
-3.303339767456054688e+01
2.047204208374023438e+01
1.204125137329101562e+02
1.851671447753906250e+02
2.417951965332031250e+02
6.448773193359375000e+01
1.964250946044921875e+02
1.097289276123046875e+02
-1.403528594970703125e+02
-1.781554565429687500e+02
-8.363323974609375000e+01
-3.515435791015625000e+01
8.975410461425781250e+01
2.829149475097656250e+02
3.699200439453125000e+02
3.460389709472656250e+02
2.311217956542968750e+02
2.209344787597656250e+02
7.192083740234375000e+01
-3.463120269775390625e+01
-2.430883941650390625e+02
-1.868722686767578125e+02
-1.846519775390625000e+02
-4.283954620361328125e+01
1.268202133178710938e+02
2.125319519042968750e+02
1.457010650634765625e+02
1.354882659912109375e+02
-1.455852699279785156e+01
-1.207774963378906250e+02
6.557043075561523438e+00
5.489963912963867188e+01
2.250137786865234375e+02
2.451841430664062500e+02
2.342353210449218750e+02
1.732866058349609375e+02
6.735799407958984375e+01
4.930566406250000000e+01
7.812848663330078125e+01
2.229507827758789062e+01
3.158134460449218750e+01
1.946883544921875000e+02
1.393729095458984375e+02
1.296712188720703125e+02
-9.655141830444335938e+00
-1.357259979248046875e+02
5.444839859008789062e+01
6.001354217529296875e+01
1.906626129150390625e+02
2.510094451904296875e+02
2.234522247314453125e+02
2.310000000000000000e+02
1.054273891448974609e+01
9.177252197265625000e+01
7.211223602294921875e+00
-1.217166595458984375e+02
-7.579841613769531250e+01
3.802791213989257812e+01
1.651363677978515625e+02
1.485669250488281250e+02
2.401737060546875000e+02
7.873935699462890625e+01
2.074379425048828125e+02
1.141904220581054688e+02
-8.259140777587890625e+01
-7.042287445068359375e+01
-3.622607040405273438e+01
-3.357341003417968750e+01
1.789225311279296875e+02
1.963791046142578125e+02
1.341587677001953125e+02
3.120588684082031250e+01
1.166111145019531250e+02
1.905718803405761719e+01
4.788157272338867188e+01
1.163770484924316406e+01
1.819506072998046875e+02
1.586188964843750000e+02
1.835325775146484375e+02
1.351692199707031250e+02
-1.466722774505615234e+01
-3.523406982421875000e+01
-8.416727447509765625e+01
-5.253342056274414062e+01
1.574093322753906250e+02
1.819560394287109375e+02
9.887681579589843750e+01
1.578757629394531250e+02
8.673867797851562500e+01
-2.900692558288574219e+01
-6.552066040039062500e+01
-5.592364883422851562e+01
-9.363213539123535156e+00
1.794799194335937500e+02
3.461031188964843750e+02
2.261186065673828125e+02
2.386958007812500000e+02
1.209161224365234375e+02
-1.353344573974609375e+02
-1.204212493896484375e+02
-1.074111251831054688e+02
-1.676759948730468750e+02
-5.911843776702880859e-01
4.572330093383789062e+01
3.368302612304687500e+02
4.649202880859375000e+02
4.930049133300781250e+02
4.177717590332031250e+02
3.649652099609375000e+02
2.659041137695312500e+02
7.952681732177734375e+01
-1.552125549316406250e+02
-3.307752990722656250e+02
-3.988837585449218750e+02
-3.393004150390625000e+02
-2.974752197265625000e+02
-1.692990264892578125e+02
-3.583319473266601562e+01
2.204729003906250000e+02
1.846271972656250000e+02
3.593200378417968750e+02
3.829983520507812500e+02
2.974218750000000000e+02
1.234062271118164062e+02
-2.110950708389282227e+00
-1.349342193603515625e+02
-1.527068634033203125e+02
-6.282846069335937500e+01
-1.240652656555175781e+01
2.142027282714843750e+02
1.950522460937500000e+02
2.047676849365234375e+02
1.492675018310546875e+02
3.557416534423828125e+01
3.757629632949829102e+00
3.137802505493164062e+01
1.278535385131835938e+02
1.505393066406250000e+02
6.092065811157226562e+01
9.451312255859375000e+01
1.230478363037109375e+02
3.386938858032226562e+01
1.035128402709960938e+02
8.372779846191406250e+01
-8.193046569824218750e+00
-8.538414764404296875e+01
-1.473435974121093750e+02
6.077252960205078125e+01
1.026037750244140625e+02
1.837210845947265625e+02
2.096977386474609375e+02
1.336979217529296875e+02
1.534777545928955078e+01
-5.237399291992187500e+01
-4.400857448577880859e+00
1.244528732299804688e+02
2.606546936035156250e+02
1.020292510986328125e+02
-1.156631278991699219e+01
2.916670227050781250e+01
4.263337612152099609e+00
1.533867950439453125e+02
1.822115936279296875e+02
1.065699615478515625e+02
-1.532042980194091797e+01
-6.019313812255859375e+01
-2.919076538085937500e+01
1.429075927734375000e+02
1.162050476074218750e+02
3.406244277954101562e+01
8.328002166748046875e+01
1.062440490722656250e+02
-5.051919555664062500e+01
-1.510612297058105469e+01
5.070016098022460938e+01
1.788003082275390625e+02
2.261170806884765625e+02
2.494040069580078125e+02
1.850657501220703125e+02
2.878894042968750000e+01
-8.754733276367187500e+01
8.451974868774414062e+00
-8.847389221191406250e+00
1.441889190673828125e+02
1.223417129516601562e+02
2.081786499023437500e+02
1.152031021118164062e+02
-3.868735122680664062e+01
-1.160139770507812500e+02
-5.873042106628417969e+00
-3.290078878402709961e+00
1.139419479370117188e+02
1.946345672607421875e+02
1.176600112915039062e+02
6.419939422607421875e+01
5.728823852539062500e+01
1.207846527099609375e+02
9.223235321044921875e+01
4.759697341918945312e+01
3.576443862915039062e+01
3.738996124267578125e+01
1.529987945556640625e+02
1.825793762207031250e+02
1.947545013427734375e+02
8.704521942138671875e+01
3.970615386962890625e+01
6.336188888549804688e+01
7.985481262207031250e+01
1.561263427734375000e+02
1.739729766845703125e+02
1.119312515258789062e+02
7.810086059570312500e+01
-1.275678482055664062e+02
-2.323906250000000000e+02
-2.751003112792968750e+02
-2.178047027587890625e+02
-3.198136901855468750e+01
4.444902038574218750e+01
2.352535705566406250e+02
4.002403869628906250e+02
3.893627929687500000e+02
4.538743896484375000e+02
3.000606384277343750e+02
1.090837478637695312e+02
3.945702743530273438e+01
1.119521865844726562e+02
-2.143236160278320312e+01
-7.485750198364257812e+00
2.822890090942382812e+01
1.677143554687500000e+02
1.507512512207031250e+02
1.572516021728515625e+02
1.384492950439453125e+02
-8.203042602539062500e+01
-8.469486236572265625e+01
-3.886267089843750000e+01
-9.257234954833984375e+01
6.358905792236328125e+01
2.564645080566406250e+02
3.545954589843750000e+02
2.847131042480468750e+02
2.525371704101562500e+02
1.699352416992187500e+02
5.624285507202148438e+01
-3.939985656738281250e+01
-1.191672515869140625e+01
4.349434280395507812e+01
1.375832977294921875e+02
1.771237182617187500e+02
1.776822662353515625e+02
6.793829345703125000e+01
2.129883193969726562e+01
9.615058898925781250e+01
1.170256729125976562e+02
7.388594818115234375e+01
-6.368760681152343750e+01
-4.603691101074218750e+01
-9.907632827758789062e+00
1.833234100341796875e+02
2.670261840820312500e+02
2.324416503906250000e+02
1.431958312988281250e+02
2.648895072937011719e+01
-7.046695232391357422e+00
1.854156494140625000e+01
1.492206268310546875e+02
8.957481384277343750e+01
2.644060897827148438e+01
4.153938674926757812e+01
1.939510192871093750e+02
1.407062835693359375e+02
1.188951034545898438e+02
-3.676804733276367188e+01
-5.557713699340820312e+01
-3.889181518554687500e+01
9.375726318359375000e+01
-8.738262176513671875e+00
2.031596069335937500e+02
1.482443542480468750e+02
6.344650650024414062e+01
1.390663909912109375e+01
3.501011610031127930e+00
7.349192810058593750e+01
1.546045074462890625e+02
-5.054264831542968750e+01
-2.256807899475097656e+01
7.798224639892578125e+01
4.389106369018554688e+01
1.299174194335937500e+02
1.283880462646484375e+02
3.090626335144042969e+01
-2.160358667373657227e+00
1.324838867187500000e+02
5.238250350952148438e+01
1.645264892578125000e+02
1.338997192382812500e+02
5.570875167846679688e+01
3.392487335205078125e+01
7.367258453369140625e+01
1.845423431396484375e+02
2.520013580322265625e+02
2.209536437988281250e+02
1.324919433593750000e+02
4.881540298461914062e+01
-7.277441406250000000e+01
-7.106845855712890625e+01
8.250814056396484375e+01
9.376363754272460938e+00
1.036358489990234375e+02
1.073582839965820312e+02
3.734501838684082031e+00
2.851447343826293945e+00
7.719086456298828125e+01
-3.245626449584960938e+00
9.674262237548828125e+01
2.525831298828125000e+02
1.963809204101562500e+02
1.269851226806640625e+02
2.322387504577636719e+01
-8.948667144775390625e+01
-3.702421188354492188e+01
1.269693984985351562e+02
7.951097869873046875e+01
1.270234870910644531e+01
6.384317398071289062e+01
1.083224258422851562e+02
2.141994476318359375e+02
2.794681396484375000e+02
2.605724182128906250e+02
1.692377014160156250e+02
5.731850433349609375e+01
2.789484405517578125e+01
-2.250543832778930664e+00
9.810658264160156250e+01
1.014923553466796875e+02
-2.955753517150878906e+01
-4.558166503906250000e+00
1.636178894042968750e+02
4.168123245239257812e+00
1.485873413085937500e+02
6.313380050659179688e+01
2.248199462890625000e+02
1.965144195556640625e+02
1.071871109008789062e+02
-5.076018905639648438e+01
-8.275618743896484375e+01
-1.200092773437500000e+02
1.390904808044433594e+01
1.209882965087890625e+02
1.924600219726562500e+02
1.526842041015625000e+02
1.184833984375000000e+02
9.971939086914062500e+01
-1.240486907958984375e+02
-2.637792358398437500e+02
-2.272208557128906250e+02
-2.763056030273437500e+02
-1.853692016601562500e+02
2.133354663848876953e+00
2.479749298095703125e+02
2.513176269531250000e+02
3.517341613769531250e+02
2.563135375976562500e+02
2.627545471191406250e+02
1.781738281250000000e+02
-6.925144195556640625e+01
-1.804112854003906250e+02
-1.723104553222656250e+02
-2.715847167968750000e+02
-9.977660369873046875e+01
3.879328155517578125e+01
2.878429565429687500e+02
3.280470886230468750e+02
3.647584533691406250e+02
3.368541870117187500e+02
2.397583465576171875e+02
1.308170928955078125e+02
-4.907851791381835938e+01
-1.801190795898437500e+02
-2.560970458984375000e+02
-1.659435272216796875e+02
-9.193008422851562500e+01
1.324045715332031250e+02
1.173229141235351562e+02
8.897154998779296875e+01
1.454771995544433594e+01
6.811910247802734375e+01
1.848647308349609375e+02
1.154329986572265625e+02
4.948777389526367188e+01
1.170985107421875000e+02
1.719891929626464844e+01
3.395709228515625000e+01
6.310478210449218750e+01
1.327766571044921875e+02
2.272410278320312500e+02
2.843294982910156250e+02
1.310605163574218750e+02
6.059590148925781250e+01
-8.372843933105468750e+01
-9.101081848144531250e+01
-5.367237472534179688e+01
4.613563537597656250e+01
2.008282623291015625e+02
2.492032775878906250e+02
3.141412658691406250e+02
1.991511993408203125e+02
9.809784698486328125e+01
-6.806372833251953125e+01
-1.423132934570312500e+02
-1.485721435546875000e+02
-1.506231536865234375e+02
-1.958147621154785156e+01
1.547682800292968750e+02
1.382838134765625000e+02
1.957907714843750000e+02
1.953475952148437500e+02
2.981217193603515625e+01
3.063991165161132812e+01
-8.767934799194335938e+00
1.091972122192382812e+02
1.430849304199218750e+02
7.008936309814453125e+01
7.325109100341796875e+01
3.959064102172851562e+01
7.626728057861328125e+01
5.971675491333007812e+01
1.266875991821289062e+02
7.435335540771484375e+01
5.028457164764404297e+00
-5.310317039489746094e+00
1.184012985229492188e+01
1.587553253173828125e+02
2.196450042724609375e+02
1.716895446777343750e+02
8.255840301513671875e+01
-4.594551086425781250e+01
-1.143938903808593750e+02
-6.500700378417968750e+01
1.260423469543457031e+01
-2.441119956970214844e+01
1.941817626953125000e+02
2.971383361816406250e+02
3.463993835449218750e+02
3.415706787109375000e+02
2.360786437988281250e+02
1.125430603027343750e+02
-1.394701995849609375e+02
-2.598437805175781250e+02
-2.787137451171875000e+02
-2.805155029296875000e+02
-1.315015869140625000e+02
5.565729141235351562e+00
4.280916976928710938e+01
4.466994018554687500e+02
4.870040588378906250e+02
5.305703125000000000e+02
5.408422851562500000e+02
4.678558349609375000e+02
3.674761352539062500e+02
2.527866973876953125e+02
6.801515197753906250e+01
-1.185964965820312500e+02
-2.687113647460937500e+02
-3.380213317871093750e+02
-3.356697387695312500e+02
-2.041851348876953125e+02
-1.856884307861328125e+02
5.087829208374023438e+01
2.888449096679687500e+02
2.501739044189453125e+02
3.247244873046875000e+02
3.435254211425781250e+02
2.090910034179687500e+02
1.186379470825195312e+02
-8.960134124755859375e+01
-2.604569091796875000e+02
-1.758919677734375000e+02
-1.605368804931640625e+02
-7.025005340576171875e+01
9.900953674316406250e+01
1.519795837402343750e+02
1.180291976928710938e+02
1.291006164550781250e+02
-5.434289550781250000e+01
-1.285673065185546875e+02
-4.911240386962890625e+01
2.529082870483398438e+01
1.923216705322265625e+02
1.944888763427734375e+02
2.569989929199218750e+02
8.963620758056640625e+01
-8.399298667907714844e+00
-2.569091987609863281e+01
-5.881946182250976562e+01
9.938197135925292969e+00
1.990168762207031250e+02
2.486580200195312500e+02
2.096236267089843750e+02
1.335660552978515625e+02
1.320146789550781250e+02
-1.745218811035156250e+02
-1.772474060058593750e+02
-2.003490295410156250e+02
-2.229320983886718750e+02
-8.697174072265625000e+01
1.123153991699218750e+02
1.768109436035156250e+02
1.915902709960937500e+02
6.929953002929687500e+01
1.237836303710937500e+02
5.049153137207031250e+01
5.910901260375976562e+01
1.980281066894531250e+02
1.926189727783203125e+02
4.013167190551757812e+01
1.279020843505859375e+02
-1.493572807312011719e+01
8.225843429565429688e+00
6.451789093017578125e+01
2.623455505371093750e+02
2.793624877929687500e+02
2.221311798095703125e+02
1.643509216308593750e+02
4.292997360229492188e+01
7.355803680419921875e+01
-1.619344139099121094e+01
-3.313684844970703125e+01
-1.345873565673828125e+02
1.453097057342529297e+01
2.627663574218750000e+02
2.913348388671875000e+02
3.042484130859375000e+02
2.354653778076171875e+02
1.806299133300781250e+02
-4.801501083374023438e+01
-1.363686676025390625e+02
-1.219280014038085938e+02
-6.863941955566406250e+01
3.386838912963867188e+01
1.819380187988281250e+02
2.818067932128906250e+02
2.657154541015625000e+02
2.732662353515625000e+02
1.142223739624023438e+02
6.427937507629394531e+00
-7.258358764648437500e+01
-1.293821563720703125e+02
-3.007472419738769531e+01
5.967235183715820312e+01
1.879691772460937500e+02
3.088198242187500000e+02
2.575272521972656250e+02
2.019284820556640625e+02
1.876766662597656250e+02
5.020751190185546875e+01
-1.423170928955078125e+02
-1.377629394531250000e+02
-6.526652526855468750e+01
4.697921371459960938e+01
2.111753234863281250e+02
2.448491058349609375e+02
2.675019531250000000e+02
1.695864715576171875e+02
1.091013107299804688e+02
-1.803601646423339844e+01
-7.875606536865234375e+01
-6.831477355957031250e+01
-1.398083114624023438e+01
1.123299884796142578e+01
2.234692382812500000e+02
2.825534362792968750e+02
2.643464050292968750e+02
1.779138031005859375e+02
1.122399215698242188e+02
2.271710395812988281e+01
-3.022736930847167969e+01
-5.750284957885742188e+01
-1.191940536499023438e+02
5.513962936401367188e+01
2.539781799316406250e+02
2.330566253662109375e+02
2.732927246093750000e+02
2.017122802734375000e+02
7.009832000732421875e+01
-1.184260654449462891e+01
5.120125198364257812e+01
1.292577819824218750e+02
6.076494979858398438e+01
1.939654541015625000e+02
1.455179443359375000e+02
5.785108566284179688e+01
-2.952113723754882812e+01
8.835211944580078125e+01
5.344070434570312500e+00
3.242922592163085938e+01
8.113948059082031250e+01
2.588157043457031250e+02
3.400697631835937500e+02
2.974871826171875000e+02
2.893007202148437500e+02
1.504299926757812500e+02
2.740970993041992188e+01
-1.036738662719726562e+02
-5.884114837646484375e+01
-9.843029022216796875e+01
2.335955238342285156e+01
1.501832427978515625e+02
2.097640075683593750e+02
2.468704223632812500e+02
2.458885498046875000e+02
1.314497528076171875e+02
-1.108500747680664062e+02
-1.926441650390625000e+02
-1.449641571044921875e+02
-1.380545806884765625e+02
8.397302627563476562e+00
1.148421020507812500e+02
2.450944061279296875e+02
2.022062530517578125e+02
1.845230407714843750e+02
4.926844787597656250e+01
-3.462902450561523438e+01
6.369428253173828125e+01
1.240277023315429688e+02
1.645770721435546875e+02
7.026163482666015625e+01
1.011811904907226562e+02
3.583092117309570312e+01
1.343237495422363281e+01
1.519141292572021484e+01
1.321852264404296875e+02
2.229732055664062500e+02
2.097603302001953125e+02
1.389201049804687500e+02
1.105320358276367188e+01
-5.767304992675781250e+01
-4.028923416137695312e+01
4.846028137207031250e+01
1.395091094970703125e+02
1.711508941650390625e+02
1.287617492675781250e+02
1.033283615112304688e+02
1.371965646743774414e+00
-8.533429718017578125e+01
-4.839169692993164062e+01
4.028478240966796875e+01
1.533858184814453125e+02
1.894527435302734375e+02
1.197743911743164062e+02
1.072005386352539062e+02
-4.816638565063476562e+01
-1.663641452789306641e+00
-1.097143096923828125e+02
4.521763610839843750e+01
1.737928771972656250e+02
1.329978790283203125e+02
1.182389907836914062e+02
8.473772430419921875e+01
4.141277694702148438e+01
1.191087722778320312e+02
1.099841156005859375e+02
3.227556610107421875e+01
-7.064354705810546875e+01
-6.146651077270507812e+01
1.007908706665039062e+02
1.114367218017578125e+02
3.143456840515136719e+01
1.103915481567382812e+02
9.989965057373046875e+01
-2.456824111938476562e+01
3.437302398681640625e+01
4.068627166748046875e+01
1.808345336914062500e+02
1.632092742919921875e+02
1.024154205322265625e+02
7.076284027099609375e+01
-1.409212799072265625e+02
-1.694884490966796875e+02
-1.672571411132812500e+02
-6.596115875244140625e+01
4.017232131958007812e+01
2.185285491943359375e+02
2.997904357910156250e+02
2.630770874023437500e+02
2.626248474121093750e+02
1.672809448242187500e+02
2.973304748535156250e+01
-9.912356567382812500e+01
-5.274012374877929688e+01
5.259274673461914062e+01
1.434298553466796875e+02
1.820343780517578125e+02
1.035622406005859375e+02
7.773615264892578125e+01
-3.069224929809570312e+01
4.574398040771484375e+01
1.630701293945312500e+02
1.994131317138671875e+02
8.679470062255859375e+01
2.228193092346191406e+01
-2.115737152099609375e+01
3.919552612304687500e+01
6.261552047729492188e+01
2.496772003173828125e+02
3.157387390136718750e+02
3.042313842773437500e+02
2.702533569335937500e+02
2.034273681640625000e+02
-1.158257293701171875e+01
-1.118926620483398438e+02
-1.225059356689453125e+02
-6.393041992187500000e+01
-8.667810440063476562e+00
1.505333251953125000e+02
2.988572387695312500e+02
1.543094635009765625e+02
2.677715454101562500e+02
1.381985473632812500e+02
1.621417427062988281e+01
-9.186759948730468750e+01
-1.532323303222656250e+02
-1.168778762817382812e+02
-2.723444366455078125e+01
2.689679260253906250e+02
2.553305511474609375e+02
2.172926025390625000e+02
2.378955993652343750e+02
5.098069381713867188e+01
7.406813049316406250e+01
-4.648973941802978516e+00
3.682933425903320312e+01
7.257981109619140625e+01
1.460212554931640625e+02
1.021093063354492188e+02
-7.304463958740234375e+01
-9.985946655273437500e+01
-2.993874931335449219e+01
-1.770133614540100098e+00
1.502479248046875000e+02
3.207884521484375000e+02
2.404813537597656250e+02
2.070383300781250000e+02
3.596735000610351562e+01
5.590843582153320312e+01
-1.041434669494628906e+01
1.752288055419921875e+02
5.567492675781250000e+01
1.551421356201171875e+02
2.783040161132812500e+02
2.125907897949218750e+02
6.106531143188476562e+01
6.204171752929687500e+01
-1.197509098052978516e+01
2.277309226989746094e+01
1.656925659179687500e+02
2.431424560546875000e+02
1.872625274658203125e+02
1.191416015625000000e+02
-6.196541976928710938e+01
1.711091232299804688e+01
-4.314328002929687500e+01
3.653759002685546875e+01
2.239555816650390625e+02
2.647508544921875000e+02
2.442413940429687500e+02
2.442597503662109375e+02
-2.409738349914550781e+01
-5.862544250488281250e+01
-1.372652816772460938e+01
8.292023468017578125e+01
1.910200042724609375e+02
2.135639801025390625e+02
1.634608459472656250e+02
1.294272003173828125e+02
-1.214129686355590820e+00
-7.235305786132812500e+01
-3.031751823425292969e+01
1.665171813964843750e+01
1.215884475708007812e+02
2.069662322998046875e+02
1.669223327636718750e+02
9.292103576660156250e+01
4.680998992919921875e+01
1.037128753662109375e+02
7.052238464355468750e+01
4.259067535400390625e+01
-3.980843734741210938e+01
-2.242853546142578125e+01
5.660287475585937500e+01
2.943120422363281250e+02
3.401549377441406250e+02
3.907967529296875000e+02
3.005551147460937500e+02
1.971956634521484375e+02
1.799607849121093750e+01
2.088450813293457031e+01
-3.217255783081054688e+01
-4.399024200439453125e+01
1.125231018066406250e+02
1.826045227050781250e+02
1.041848907470703125e+02
-1.041133022308349609e+01
6.152302551269531250e+01
1.271445751190185547e+01
9.231213378906250000e+01
1.413811492919921875e+02
-1.226427841186523438e+01
2.107609558105468750e+01
7.791362762451171875e+01
1.027206802368164062e+02
7.915106296539306641e+00
9.122164726257324219e+00
1.448396148681640625e+02
1.059924392700195312e+02
9.741619110107421875e+01
2.346548652648925781e+01
-6.873547363281250000e+01
-3.309616851806640625e+01
1.445471191406250000e+02
1.195274734497070312e+02
5.113604354858398438e+01
9.233327484130859375e+01
8.095323944091796875e+01
2.207050895690917969e+01
-4.642308044433593750e+01
-1.107859706878662109e+01
3.712607860565185547e+00
2.423375244140625000e+02
3.122367553710937500e+02
2.218975677490234375e+02
2.663638610839843750e+02
1.861642913818359375e+02
-7.160050964355468750e+01
-1.151624984741210938e+02
-1.389767303466796875e+02
-5.526158142089843750e+01
1.833592414855957031e+01
1.972110748291015625e+02
2.634335937500000000e+02
2.676993408203125000e+02
2.888535766601562500e+02
9.780653381347656250e+01
-6.010422515869140625e+01
-8.739618682861328125e+01
-1.610841064453125000e+02
-1.326674194335937500e+02
6.855744934082031250e+01
3.429203796386718750e+01
1.159136657714843750e+02
2.116858062744140625e+02
9.591532135009765625e+01
1.038430252075195312e+02
-8.467524528503417969e+00
9.504688262939453125e+01
7.000892639160156250e+01
4.474404525756835938e+01
7.208953857421875000e+00
1.014394531250000000e+02
5.482104492187500000e+01
1.410046386718750000e+02
1.045882873535156250e+02
-3.140139961242675781e+01
-4.764465713500976562e+01
2.053559303283691406e+01
1.314816894531250000e+02
1.664545440673828125e+02
1.703269195556640625e+02
5.688479995727539062e+01
2.440246391296386719e+01
1.774837875366210938e+01
1.752105407714843750e+02
1.722877807617187500e+02
1.494640808105468750e+02
1.011651535034179688e+02
-1.096909484863281250e+02
-9.334583282470703125e+01
-9.424804687500000000e+01
-1.896403312683105469e+01
4.584520339965820312e+01
1.453780670166015625e+02
2.534777526855468750e+02
2.793851623535156250e+02
2.082396240234375000e+02
2.193455963134765625e+02
-1.207857799530029297e+01
1.889528155326843262e+00
-3.289158248901367188e+01
-2.180942916870117188e+01
1.141600723266601562e+02
1.188006896972656250e+02
1.172478637695312500e+02
3.871336746215820312e+01
-4.862932682037353516e+00
3.187916946411132812e+01
1.729591369628906250e+02
1.830458068847656250e+02
1.208096008300781250e+02
8.127877807617187500e+01
-1.227259368896484375e+02
-1.611675872802734375e+02
-1.130591659545898438e+02
-7.978017425537109375e+01
1.019064712524414062e+02
1.390052947998046875e+02
1.465545749664306641e+01
1.662582550048828125e+02
1.192101745605468750e+02
1.151056671142578125e+01
3.889798736572265625e+01
8.493405151367187500e+01
1.505275726318359375e+02
2.477524566650390625e+02
1.536351776123046875e+02
5.104251098632812500e+01
6.674188995361328125e+01
5.169994354248046875e+01
9.480176544189453125e+01
1.393546447753906250e+02
6.978238677978515625e+01
1.283144683837890625e+02
2.907287788391113281e+01
7.354040527343750000e+01
1.803274345397949219e+01
2.068005676269531250e+02
1.720540313720703125e+02
1.741037445068359375e+02
1.126197357177734375e+02
-1.148163700103759766e+01
-3.036123657226562500e+01
-4.440232467651367188e+01
3.369068145751953125e+01
1.007093887329101562e+02
1.419580230712890625e+02
1.294451446533203125e+02
3.067760086059570312e+01
7.756481933593750000e+01
7.939469146728515625e+01
1.588859252929687500e+02
1.354339981079101562e+01
2.425536155700683594e+01
1.535623016357421875e+02
3.683337783813476562e+01
1.036121215820312500e+02
3.293492507934570312e+01
7.467597198486328125e+01
1.602965545654296875e+02
1.837274932861328125e+02
2.162046966552734375e+02
8.346669769287109375e+01
-1.345546913146972656e+01
-1.069823989868164062e+02
-8.000630187988281250e+01
3.007878112792968750e+01
-1.772762298583984375e+01
2.583541870117187500e+02
3.197261962890625000e+02
3.239624633789062500e+02
2.949135742187500000e+02
2.558187561035156250e+02
4.443236923217773438e+01
2.218048334121704102e+00
1.440776538848876953e+01
4.677600479125976562e+01
1.215969772338867188e+02
2.035430450439453125e+02
1.622218780517578125e+02
1.538240814208984375e+02
-1.109266738891601562e+02
-1.602055969238281250e+02
-1.588022460937500000e+02
-7.039285278320312500e+01
5.827318572998046875e+01
2.188517761230468750e+02
2.613429565429687500e+02
3.219486389160156250e+02
2.819667358398437500e+02
1.420451812744140625e+02
2.239843368530273438e+01
-1.869834136962890625e+01
-5.556306076049804688e+01
-3.109868049621582031e+01
1.574846649169921875e+02
1.211627120971679688e+02
2.015368347167968750e+02
2.935704421997070312e+01
2.715467262268066406e+01
1.187173233032226562e+02
6.080257415771484375e+01
9.113745117187500000e+01
1.167731094360351562e+02
5.850291824340820312e+01
1.247027969360351562e+02
6.798274993896484375e+01
3.646628189086914062e+01
1.196129150390625000e+02
4.242191696166992188e+01
1.456128997802734375e+02
1.182745285034179688e+02
6.589608764648437500e+01
-1.118457107543945312e+02
-8.957103729248046875e+01
-1.752921295166015625e+02
-4.994457626342773438e+01
7.208274841308593750e+01
2.360073242187500000e+02
3.433909301757812500e+02
4.038734130859375000e+02
3.731190490722656250e+02
3.044872131347656250e+02
1.984165191650390625e+02
3.398777008056640625e+01
-2.225758819580078125e+02
-2.969339599609375000e+02
-1.596740264892578125e+02
-1.278811492919921875e+02
2.146278381347656250e+01
1.453624877929687500e+02
2.605591430664062500e+02
3.285690917968750000e+02
3.011553344726562500e+02
2.175079040527343750e+02
-4.094696426391601562e+01
7.722135162353515625e+01
-3.110663414001464844e+01
-8.706562995910644531e+00
1.331878967285156250e+02
1.680904693603515625e+02
9.516925811767578125e+01
8.118125915527343750e+01
1.499609184265136719e+01
-9.583273315429687500e+01
-5.651428222656250000e+01
-1.271363067626953125e+01
9.999481201171875000e+01
1.489842529296875000e+02
5.523007965087890625e+01
1.452125091552734375e+02
2.358626556396484375e+02
6.270533752441406250e+01
8.816253662109375000e+01
-4.693437576293945312e+00
-3.911930084228515625e+01
9.969804883003234863e-01
1.974113769531250000e+02
1.576864776611328125e+02
2.107044525146484375e+02
5.850656127929687500e+01
2.931663513183593750e+01
-8.880883789062500000e+01
-7.354868316650390625e+01
2.296795654296875000e+01
1.022186355590820312e+02
5.559963607788085938e+01
2.632054443359375000e+02
2.996823120117187500e+02
2.923684082031250000e+02
2.454290466308593750e+02
6.143233108520507812e+01
5.069650173187255859e+00
2.659561920166015625e+01
2.391864395141601562e+01
1.594050598144531250e+02
2.129716949462890625e+02
9.544677734375000000e+01
1.160965881347656250e+02
-1.386250972747802734e+01
-5.285346984863281250e+01
-4.464828109741210938e+01
8.953753662109375000e+01
-3.426976394653320312e+01
8.788835906982421875e+01
1.218648529052734375e+02
-2.063044166564941406e+01
6.033735656738281250e+01
1.634982910156250000e+02
1.364205322265625000e+02
4.230553436279296875e+01
1.000233993530273438e+02
-9.246209716796875000e+01
1.124769401550292969e+01
2.878162193298339844e+01
1.202436370849609375e+02
2.759546813964843750e+02
2.452501068115234375e+02
1.500809936523437500e+02
5.283118820190429688e+01
2.268667984008789062e+01
-3.206569671630859375e+01
9.164118957519531250e+01
1.348401947021484375e+02
2.297231445312500000e+02
1.591419067382812500e+02
1.374199523925781250e+02
-8.309388732910156250e+01
-4.205357360839843750e+01
-9.378569030761718750e+01
1.031584625244140625e+02
9.148993492126464844e+00
2.514035415649414062e+01
1.942268066406250000e+02
1.684783935546875000e+02
1.747681732177734375e+02
8.400306701660156250e+01
6.107236099243164062e+01
2.837234687805175781e+01
1.823125457763671875e+02
1.933638305664062500e+02
2.069776763916015625e+02
1.343163452148437500e+02
-3.845029830932617188e+01
-8.827544403076171875e+01
-1.569277801513671875e+02
-6.181956100463867188e+01
-2.060448646545410156e+01
1.649139556884765625e+02
3.206980590820312500e+02
2.695924377441406250e+02
2.433322753906250000e+02
3.620022964477539062e+01
1.684778137207031250e+02
4.899840164184570312e+01
9.235910034179687500e+01
-9.261405944824218750e+01
-8.643791961669921875e+01
-2.819749450683593750e+01
7.385090637207031250e+01
2.613390502929687500e+02
3.683002014160156250e+02
3.299390869140625000e+02
2.399800567626953125e+02
2.069306335449218750e+02
1.399529361724853516e+01
-9.537912750244140625e+01
-6.805106353759765625e+01
-4.772585296630859375e+01
6.526197052001953125e+01
2.565670776367187500e+02
3.183226623535156250e+02
3.696859741210937500e+02
2.311836242675781250e+02
1.032005844116210938e+02
-5.012469863891601562e+01
-4.886309432983398438e+01
-1.878473091125488281e+01
1.237317466735839844e+01
1.164183273315429688e+02
6.945677947998046875e+01
1.203486099243164062e+02
3.374077606201171875e+01
-1.515369987487792969e+01
2.876654434204101562e+01
2.639710998535156250e+02
9.572534179687500000e+01
1.125248260498046875e+02
1.851278495788574219e+01
3.492943572998046875e+01
1.069446411132812500e+02
2.947153663635253906e+01
1.055184097290039062e+02
1.352281799316406250e+02
1.307190036773681641e+01
-2.768537521362304688e+01
-1.612884140014648438e+01
1.466411895751953125e+02
1.558461914062500000e+02
1.270122985839843750e+02
-2.231325340270996094e+01
3.609403991699218750e+01
1.235840225219726562e+02
7.514800262451171875e+01
9.861217498779296875e+01
9.239933776855468750e+01
5.392493820190429688e+01
2.458751296997070312e+01
8.177903747558593750e+01
6.100473022460937500e+01
1.611601562500000000e+02
1.209607467651367188e+02
3.952998733520507812e+01
6.368931198120117188e+01
1.145161895751953125e+02
7.800706481933593750e+01
1.315782318115234375e+02
2.279500732421875000e+02
6.157710647583007812e+01
5.592913055419921875e+01
1.386773071289062500e+02
5.363864898681640625e+01
8.186286163330078125e+01
1.960502471923828125e+02
1.419645690917968750e+02
1.928264617919921875e+02
1.699715614318847656e+01
-1.996049690246582031e+01
3.100609970092773438e+01
7.024940490722656250e+01
2.704732971191406250e+02
2.235602722167968750e+02
2.233363037109375000e+02
1.732871246337890625e+02
1.052733001708984375e+02
-8.873006439208984375e+01
-1.958717041015625000e+02
-2.401446075439453125e+02
-2.223146514892578125e+02
-8.113004302978515625e+01
5.919286727905273438e+01
2.233435516357421875e+02
3.401771850585937500e+02
2.965819702148437500e+02
2.312942504882812500e+02
2.107377929687500000e+02
6.707896423339843750e+01
4.784187316894531250e+00
4.531897068023681641e+00
4.267567825317382812e+01
1.488454132080078125e+02
1.619593200683593750e+02
1.332218627929687500e+02
1.057428588867187500e+02
-8.111922454833984375e+01
-1.343579254150390625e+02
-9.869091033935546875e+01
-7.556707763671875000e+01
-4.411317348480224609e+00
1.011803436279296875e+02
2.876697387695312500e+02
3.292821350097656250e+02
2.985037231445312500e+02
1.425233917236328125e+02
2.642180633544921875e+01
-1.297354431152343750e+02
-4.564819335937500000e+01
2.354442214965820312e+01
1.483134002685546875e+02
2.203408966064453125e+02
9.183727264404296875e+01
2.351344490051269531e+01
1.017512359619140625e+02
-3.049477577209472656e+01
6.075215530395507812e+01
7.179542064666748047e+00
1.349752349853515625e+02
1.857796478271484375e+02
1.605798645019531250e+02
1.109194412231445312e+02
-3.961013031005859375e+01
-1.439138183593750000e+02
-1.015554275512695312e+02
-5.039328098297119141e+00
6.354121780395507812e+01
2.527492523193359375e+02
3.100610046386718750e+02
3.700314025878906250e+02
3.417164306640625000e+02
2.628535461425781250e+02
8.312772369384765625e+01
2.148034858703613281e+01
1.510225772857666016e+01
4.530224227905273438e+01
1.318905029296875000e+02
2.180110473632812500e+02
2.112216033935546875e+02
5.273625183105468750e+01
1.135666351318359375e+02
2.603420257568359375e+01
1.319762229919433594e+01
2.204661941528320312e+01
1.842680053710937500e+02
1.284690856933593750e+02
1.727159271240234375e+02
8.608479309082031250e+01
-1.666869735717773438e+01
-8.535394287109375000e+01
-5.909474945068359375e+01
-2.958199691772460938e+01
8.227310943603515625e+01
2.545446472167968750e+02
2.413887176513671875e+02
2.087300109863281250e+02
1.245469360351562500e+02
-5.823979187011718750e+01
-1.210902862548828125e+02
-6.413161468505859375e+01
-2.278056335449218750e+01
1.225933265686035156e+01
1.502386779785156250e+02
3.211003723144531250e+02
3.062252197265625000e+02
2.584768676757812500e+02
1.409396362304687500e+02
3.373571395874023438e+01
-8.278131103515625000e+01
-8.783788299560546875e+01
-4.553984451293945312e+01
1.197353515625000000e+02
1.001069641113281250e+02
1.814924774169921875e+02
2.506036987304687500e+02
2.046780700683593750e+02
1.054141387939453125e+02
-2.072717857360839844e+01
-1.271447525024414062e+02
-1.202937850952148438e+02
-5.809463119506835938e+01
2.982324600219726562e+01
2.356439819335937500e+02
2.789361572265625000e+02
2.784092712402343750e+02
2.676243896484375000e+02
1.317039947509765625e+02
-2.887659454345703125e+01
-6.779452514648437500e+01
-1.211619720458984375e+02
-7.228549194335937500e+01
8.133851623535156250e+01
2.848721008300781250e+02
3.213923950195312500e+02
2.474255523681640625e+02
2.630844116210937500e+02
1.027399597167968750e+02
4.018862533569335938e+01
-9.530911254882812500e+01
-1.080653533935546875e+02
-4.416275024414062500e+01
7.858608245849609375e+01
1.155723037719726562e+02
1.970758438110351562e+01
8.289463806152343750e+01
6.711546325683593750e+01
6.272919845581054688e+01
1.186174240112304688e+02
3.224193572998046875e+01
1.101816787719726562e+02
4.638540267944335938e+01
2.076154899597167969e+01
2.461197204589843750e+02
1.705901947021484375e+02
2.090329895019531250e+02
5.853163146972656250e+01
1.369805450439453125e+02
1.057658004760742188e+01
-4.296151733398437500e+01
-1.939995765686035156e+01
1.914993591308593750e+02
1.193655471801757812e+02
1.247923736572265625e+02
4.972072601318359375e+01
3.502453613281250000e+01
3.468496322631835938e+01
1.711352539062500000e+02
2.043311767578125000e+02
5.968073654174804688e+01
1.110955657958984375e+02
1.413501281738281250e+02
-1.854297256469726562e+01
5.627878189086914062e+01
-2.824173164367675781e+01
-7.395054626464843750e+01
2.260914611816406250e+01
1.194128265380859375e+02
1.815592803955078125e+02
8.686367034912109375e+01
1.230092239379882812e+02
-5.747209930419921875e+01
-9.094583892822265625e+01
-1.927207183837890625e+02
-1.997137641906738281e+01
8.427382659912109375e+01
2.145903015136718750e+02
9.082056427001953125e+01
1.147838516235351562e+02
-9.275004577636718750e+01
-1.288878936767578125e+02
-5.324474334716796875e+01
-2.717942237854003906e+01
-4.037883758544921875e+00
2.827013854980468750e+02
4.131689453125000000e+02
3.948762817382812500e+02
4.296354370117187500e+02
2.961379699707031250e+02
1.764110565185546875e+02
-8.730632781982421875e+01
-1.810700683593750000e+02
-1.605799407958984375e+02
-2.621846618652343750e+02
-8.334387207031250000e+01
5.931625747680664062e+01
1.258316650390625000e+02
2.139252777099609375e+02
1.923638153076171875e+02
1.807163696289062500e+02
4.158615875244140625e+01
4.736164093017578125e+00
7.369774627685546875e+01
-4.178991317749023438e+01
-5.470501708984375000e+01
3.304988098144531250e+01
1.354776306152343750e+02
2.000666503906250000e+02
2.457350006103515625e+02
1.197626037597656250e+02
7.915080261230468750e+01
-2.502597808837890625e+01
3.728108215332031250e+01
8.354771423339843750e+01
1.461516876220703125e+02
2.903309440612792969e+01
7.490425872802734375e+01
5.314538955688476562e+00
-2.349245262145996094e+01
1.408931274414062500e+02
1.868058624267578125e+02
5.544114303588867188e+01
1.139517898559570312e+02
6.060838699340820312e+01
3.498698806762695312e+01
1.618596496582031250e+02
1.408739624023437500e+02
1.376453704833984375e+02
2.366940879821777344e+01
-2.409662246704101562e+01
2.463084602355957031e+01
7.532149505615234375e+01
2.024839630126953125e+02
2.297543029785156250e+02
3.196055603027343750e+02
1.508192443847656250e+02
1.238370285034179688e+02
-1.282929534912109375e+02
-1.617865753173828125e+02
-2.240479278564453125e+02
-1.282343139648437500e+02
-1.111638259887695312e+02
4.680002212524414062e+01
2.580618591308593750e+02
4.028912658691406250e+02
4.439653015136718750e+02
4.283547363281250000e+02
3.734231872558593750e+02
1.447425689697265625e+02
-3.520200729370117188e+01
-1.020321731567382812e+02
-2.147039985656738281e+01
-1.051392211914062500e+02
6.023997497558593750e+01
1.893778381347656250e+02
2.156200256347656250e+02
1.858285675048828125e+02
1.430423889160156250e+02
3.507286071777343750e+01
-1.128342819213867188e+01
-1.556058406829833984e+01
1.855487823486328125e+01
3.212139892578125000e+02
2.409836273193359375e+02
2.889176635742187500e+02
1.280551757812500000e+02
1.015164489746093750e+02
-1.122778854370117188e+02
-2.491325988769531250e+02
-1.474201812744140625e+02
-1.134598770141601562e+02
-5.038832473754882812e+01
8.343215942382812500e+01
1.872070465087890625e+02
1.847473907470703125e+02
1.182668533325195312e+02
2.484949684143066406e+01
-5.820135498046875000e+01
-6.230128860473632812e+01
6.232735443115234375e+01
2.472219543457031250e+02
2.735605163574218750e+02
3.074273986816406250e+02
2.572027893066406250e+02
1.214334716796875000e+02
-1.088682250976562500e+02
-1.496676940917968750e+02
-1.317469635009765625e+02
-1.733218688964843750e+02
-1.097019958496093750e+01
7.528153991699218750e+01
2.482246246337890625e+02
3.671602478027343750e+02
4.753370971679687500e+02
4.750869140625000000e+02
3.170650634765625000e+02
2.228465270996093750e+02
1.249648742675781250e+02
-1.290569763183593750e+02
-3.064637451171875000e+02
-3.813543701171875000e+02
-2.682994995117187500e+02
-3.274909362792968750e+02
-2.342296447753906250e+02
-4.822596740722656250e+01
7.783423614501953125e+01
2.584904785156250000e+02
3.124149780273437500e+02
4.205243530273437500e+02
2.880295104980468750e+02
1.368317260742187500e+02
-3.217287445068359375e+01
-6.892893218994140625e+01
-7.758342742919921875e+01
-1.043186874389648438e+02
5.287788009643554688e+01
1.158231735229492188e+02
1.638675689697265625e+02
1.674598693847656250e+02
1.661834259033203125e+02
9.971043586730957031e+00
-4.380479812622070312e+01
-5.008546066284179688e+01
1.443105125427246094e+01
1.953113708496093750e+02
2.308048706054687500e+02
1.265818023681640625e+02
2.331573791503906250e+02
7.446258544921875000e+01
7.679467010498046875e+01
5.202244186401367188e+01
1.257262878417968750e+02
2.022824859619140625e+02
1.249818267822265625e+02
8.415241241455078125e+01
-9.521202087402343750e+01
-1.956773834228515625e+02
-1.515662536621093750e+02
-9.224893951416015625e+01
-7.504187583923339844e+00
7.337629699707031250e+01
3.318129577636718750e+02
4.526042480468750000e+02
4.957684936523437500e+02
5.199503784179687500e+02
4.184320373535156250e+02
2.488742523193359375e+02
6.558842468261718750e+01
-2.544086647033691406e+01
-1.878061065673828125e+02
-2.188431549072265625e+02
-1.418200988769531250e+02
-4.371156311035156250e+01
2.971590614318847656e+01
2.853425598144531250e+02
4.435114440917968750e+02
4.259234619140625000e+02
3.465454101562500000e+02
2.946872863769531250e+02
1.429880981445312500e+02
7.059563446044921875e+01
-1.752644348144531250e+02
-1.594642486572265625e+02
-1.393672790527343750e+02
9.305935859680175781e+00
8.798046112060546875e+01
1.435718383789062500e+02
1.455872497558593750e+02
2.924520301818847656e+01
9.988516235351562500e+01
-1.347131538391113281e+01
2.437212562561035156e+01
1.229589004516601562e+02
1.163168869018554688e+02
5.111751937866210938e+01
1.576049041748046875e+02
1.092595138549804688e+02
-5.204711914062500000e+01
-9.678105926513671875e+01
-7.112745285034179688e+00
1.998434448242187500e+01
2.302986755371093750e+02
2.446417999267578125e+02
2.119205780029296875e+02
1.413705291748046875e+02
6.840499114990234375e+01
-1.819969940185546875e+01
7.863647460937500000e+00
1.225046463012695312e+02
7.930381011962890625e+01
2.156973266601562500e+02
1.717777709960937500e+02
8.218334960937500000e+01
-3.688963699340820312e+01
-1.441025695800781250e+02
-3.815021038055419922e+00
-2.334086036682128906e+01
1.350915985107421875e+02
1.366800384521484375e+02
1.596976928710937500e+02
8.462731170654296875e+01
-1.635126876831054688e+01
-6.860895538330078125e+01
-4.708815383911132812e+01
5.856270313262939453e+00
1.431640930175781250e+02
3.005731506347656250e+02
2.424010925292968750e+02
6.998873901367187500e+01
1.257426528930664062e+02
9.148152923583984375e+01
-2.114579772949218750e+01
3.607766342163085938e+01
2.678875732421875000e+02
2.459938201904296875e+02
2.391036987304687500e+02
6.102861785888671875e+01
7.859194946289062500e+01
1.014378280639648438e+02
-1.177166976928710938e+02
-1.329268341064453125e+02
9.961906433105468750e+00
2.799349403381347656e+01
2.024893951416015625e+02
2.609816894531250000e+02
2.959731140136718750e+02
1.810995483398437500e+02
6.890035247802734375e+01
5.147339820861816406e+00
4.808180618286132812e+01
1.319406433105468750e+02
1.368730926513671875e+02
6.282921981811523438e+01
6.488352966308593750e+01
1.875504608154296875e+02
3.477098464965820312e+01
1.440686187744140625e+02
1.458218688964843750e+02
-4.206182003021240234e+00
8.331583976745605469e+00
6.391118240356445312e+01
1.569709625244140625e+02
1.895879058837890625e+02
5.116931915283203125e+01
7.825446319580078125e+01
1.898937377929687500e+02
2.425920562744140625e+02
1.345084228515625000e+02
9.614566040039062500e+01
-5.083078384399414062e+01
3.231434249877929688e+01
1.005560607910156250e+02
6.296331405639648438e+00
1.289529418945312500e+02
8.637482452392578125e+01
1.169778137207031250e+02
5.870902633666992188e+01
6.567288970947265625e+01
-9.432871818542480469e+00
7.231423377990722656e+00
2.256157531738281250e+02
1.944691162109375000e+02
1.217598648071289062e+02
9.265633392333984375e+01
-5.957517623901367188e+01
-1.636925048828125000e+02
-1.367153015136718750e+02
-9.163303375244140625e+01
-4.068973541259765625e+01
2.020243072509765625e+02
2.222486724853515625e+02
2.620452880859375000e+02
2.117218322753906250e+02
1.229226760864257812e+02
-2.825265312194824219e+01
-6.645140838623046875e+01
-6.266571807861328125e+01
1.126783275604248047e+01
3.136815547943115234e+00
2.563949279785156250e+02
2.539520568847656250e+02
2.606801452636718750e+02
2.134631042480468750e+02
1.426367187500000000e+02
-1.113613128662109375e+01
-4.588997268676757812e+01
-9.649719238281250000e+01
-5.428527450561523438e+01
1.206280136108398438e+02
9.571005249023437500e+01
4.742850494384765625e+01
9.777032470703125000e+01
7.739813995361328125e+01
1.376001739501953125e+02
4.185321807861328125e+01
1.659719543457031250e+02
1.242684860229492188e+02
-1.243341064453125000e+01
-5.434042358398437500e+01
3.879185485839843750e+01
1.206582489013671875e+02
1.754886322021484375e+02
1.391152191162109375e+02
1.215148468017578125e+02
-6.546026611328125000e+01
-1.460877685546875000e+02
-1.747428436279296875e+02
-7.261395263671875000e+01
-4.068437576293945312e+01
9.196105957031250000e+01
2.819937438964843750e+02
3.106745605468750000e+02
3.172349853515625000e+02
1.266867370605468750e+02
-1.494966983795166016e+01
-9.019970703125000000e+01
-7.245426940917968750e+01
9.720109939575195312e+00
1.129902114868164062e+02
1.163281402587890625e+02
6.154903793334960938e+01
1.643313903808593750e+02
9.694673919677734375e+01
6.254342651367187500e+01
-1.664679336547851562e+01
1.189978103637695312e+02
1.359454345703125000e+01
2.752411842346191406e+01
1.478426055908203125e+02
1.839163818359375000e+02
1.066633605957031250e+02
3.465342712402343750e+01
-3.102157831192016602e+00
1.125552139282226562e+02
2.162147140502929688e+01
5.338918304443359375e+01
9.859524536132812500e+01
1.338141174316406250e+02
1.267610015869140625e+02
-2.246792793273925781e+01
-2.129360198974609375e+00
1.595707035064697266e+01
1.844680786132812500e+02
1.883165740966796875e+02
1.102952270507812500e+02
1.783690071105957031e+01
2.355624914169311523e+00
6.063648605346679688e+01
1.704357299804687500e+02
1.773321533203125000e+02
2.441723785400390625e+02
-2.036019897460937500e+01
3.189318656921386719e+01
1.402294464111328125e+02
3.564722061157226562e+01
1.513271942138671875e+02
9.069131469726562500e+01
1.768754720687866211e+00
-5.864940166473388672e+00
-1.616475296020507812e+01
1.245175018310546875e+02
1.484634399414062500e+02
2.060388488769531250e+02
3.580338668823242188e+01
-1.623268723487854004e+00
6.260841369628906250e+01
1.692950439453125000e+02
1.989256896972656250e+02
2.261558227539062500e+02
3.014798355102539062e+01
6.674047851562500000e+01
4.470891189575195312e+01
2.383728027343750000e+02
1.770556945800781250e+02
1.241029281616210938e+02
3.675498962402343750e+01
-1.223261070251464844e+01
5.873839950561523438e+01
1.116681365966796875e+02
1.559234008789062500e+02
1.479608306884765625e+02
-2.213772296905517578e+00
6.784770965576171875e+01
2.358308601379394531e+01
-2.987808036804199219e+01
-1.572333431243896484e+01
1.586628265380859375e+02
1.797575073242187500e+02
1.338227386474609375e+02
5.355167388916015625e+01
3.867357254028320312e+01
1.395902252197265625e+02
8.306269073486328125e+01
1.297368469238281250e+02
1.668546142578125000e+02
-1.140415000915527344e+01
-3.018074989318847656e+00
-2.020936012268066406e+01
1.176530151367187500e+02
1.353693695068359375e+02
2.074708557128906250e+02
5.180711746215820312e+01
7.753635406494140625e+01
-4.337951660156250000e+01
-2.501461219787597656e+01
3.038365936279296875e+01
8.533112335205078125e+01
2.490803222656250000e+02
3.628063659667968750e+02
3.736682128906250000e+02
3.114006042480468750e+02
2.470951232910156250e+02
-9.587669372558593750e+00
8.332715034484863281e+00
-8.753656005859375000e+01
-3.113555717468261719e+01
9.230886077880859375e+01
1.237393646240234375e+02
8.457885742187500000e+01
2.906021881103515625e+01
1.754080390930175781e+01
8.261212921142578125e+01
1.857110977172851562e+01
1.488497314453125000e+02
8.215157318115234375e+01
1.676621551513671875e+02
1.226193466186523438e+02
5.248287963867187500e+01
-4.035446166992187500e+01
6.613696289062500000e+01
1.278736267089843750e+02
1.590372314453125000e+02
1.305157470703125000e+02
4.871839904785156250e+01
-1.277086734771728516e+00
9.486087799072265625e+01
-4.506607437133789062e+01
5.523106384277343750e+01
1.352066650390625000e+02
1.600612945556640625e+02
1.507168731689453125e+02
3.903701543807983398e+00
-4.940930557250976562e+01
-5.581692504882812500e+01
1.437751617431640625e+02
1.909905242919921875e+02
7.544685363769531250e+01
8.561233520507812500e+01
1.982814025878906250e+02
1.539685058593750000e+02
1.407172698974609375e+02
3.320307540893554688e+01
-9.998298645019531250e+01
7.944618988037109375e+01
-6.072470092773437500e+01
-5.967236042022705078e+00
3.423282623291015625e+01
1.699507751464843750e+02
2.096721191406250000e+02
1.611639862060546875e+02
9.954385375976562500e+01
4.402043819427490234e+00
-5.279520034790039062e+01
-3.612686920166015625e+01
7.300088500976562500e+01
8.902513885498046875e+01
7.851670837402343750e+01
1.023328552246093750e+02
7.332095336914062500e+01
2.080780601501464844e+01
-2.255993461608886719e+01
-6.103153705596923828e+00
1.526744537353515625e+02
1.240493850708007812e+02
1.693943634033203125e+02
1.226808242797851562e+02
-5.546213150024414062e+01
-1.123454895019531250e+02
-1.125941619873046875e+02
-5.003165435791015625e+01
4.826250076293945312e+01
2.395334472656250000e+02
3.632927551269531250e+02
3.046070251464843750e+02
2.972318420410156250e+02
2.491598968505859375e+02
1.088537750244140625e+02
-1.226957092285156250e+02
-2.304188537597656250e+02
-2.319207763671875000e+02
-2.240086975097656250e+02
-1.662274627685546875e+02
-1.595024967193603516e+01
1.253769912719726562e+02
2.327767944335937500e+02
2.582243041992187500e+02
2.578898315429687500e+02
1.481292114257812500e+02
3.087741470336914062e+01
3.079991912841796875e+01
-7.499292755126953125e+01
4.216687393188476562e+01
1.088988647460937500e+02
7.161875915527343750e+01
1.986984558105468750e+02
1.641791534423828125e+02
-2.184078979492187500e+01
-5.008379364013671875e+01
5.947711181640625000e+01
1.377091979980468750e+02
8.911409759521484375e+01
1.055318908691406250e+02
-7.131787872314453125e+01
-3.659553146362304688e+01
-4.656558227539062500e+01
4.848396301269531250e+00
2.065943756103515625e+02
2.842132873535156250e+02
2.418874053955078125e+02
2.021392822265625000e+02
9.622775268554687500e+01
2.385206794738769531e+01
-1.521662750244140625e+02
-1.224913253784179688e+02
-1.062081222534179688e+02
1.716679763793945312e+01
1.331020812988281250e+02
1.544063568115234375e+02
2.906170349121093750e+02
1.552184600830078125e+02
3.656764221191406250e+01
3.198428344726562500e+01
6.647322082519531250e+01
1.563561248779296875e+02
1.198741226196289062e+02
5.134840774536132812e+01
9.419585418701171875e+01
2.295169830322265625e+01
6.753150177001953125e+01
1.981112365722656250e+02
1.758419952392578125e+02
7.019900512695312500e+01
1.337818450927734375e+02
6.932360839843750000e+01
1.880411682128906250e+02
8.137532043457031250e+01
1.193475055694580078e+01
1.020859222412109375e+02
6.938567352294921875e+01
2.001737823486328125e+02
1.453978424072265625e+02
8.547177886962890625e+01
-8.337334442138671875e+01
-1.384532928466796875e+02
-8.716118621826171875e+01
-6.110761642456054688e+00
5.144577026367187500e+01
3.000668029785156250e+02
3.171682739257812500e+02
3.812533264160156250e+02
2.426187744140625000e+02
1.421457672119140625e+02
-1.380616569519042969e+01
-3.336827850341796875e+01
-3.235323715209960938e+01
1.813637542724609375e+01
1.024414520263671875e+02
1.748036346435546875e+02
8.308149719238281250e+01
-6.172880172729492188e+01
-8.849224853515625000e+01
4.839485931396484375e+01
1.001322631835937500e+02
2.189564056396484375e+02
1.309813079833984375e+02
3.083604431152343750e+01
7.412372589111328125e+00
5.363837051391601562e+01
2.427229766845703125e+02
2.441727752685546875e+02
2.022699279785156250e+02
1.203357849121093750e+02
-6.812335205078125000e+01
-8.280404663085937500e+01
-1.233681869506835938e+02
-5.694918060302734375e+01
5.155166244506835938e+01
2.222759246826171875e+02
1.902709960937500000e+02
3.294529418945312500e+02
2.875034790039062500e+02
1.553107452392578125e+02
3.185609626770019531e+01
8.315948486328125000e+00
-8.569060516357421875e+01
-1.051234626770019531e+01
1.299143066406250000e+02
1.116126480102539062e+02
1.351844177246093750e+02
9.036675262451171875e+01
-4.964652252197265625e+01
-1.170161514282226562e+02
-1.572112731933593750e+02
-1.302026367187500000e+02
9.206008911132812500e+01
9.353559112548828125e+01
1.061462249755859375e+02
-2.241110610961914062e+01
2.490293884277343750e+01
2.154858398437500000e+01
1.991815795898437500e+02
2.169994049072265625e+02
1.961622772216796875e+02
1.343256225585937500e+02
-1.188379669189453125e+01
-5.184540176391601562e+01
-9.206809234619140625e+01
-2.561536216735839844e+01
8.377897644042968750e+01
9.303604125976562500e+01
1.396681671142578125e+02
1.350373535156250000e+02
-1.506317043304443359e+01
1.061315822601318359e+01
-2.766082763671875000e+01
3.625230407714843750e+01
1.163457717895507812e+02
2.980293884277343750e+02
1.978432617187500000e+02
1.333242187500000000e+02
7.121137237548828125e+01
-2.741238403320312500e+01
-3.750891876220703125e+01
6.699844360351562500e+01
2.545797271728515625e+02
3.332378234863281250e+02
3.369328613281250000e+02
1.995387268066406250e+02
1.154819259643554688e+02
-1.117121734619140625e+02
-1.108315734863281250e+02
-1.394562530517578125e+02
-1.714310760498046875e+02
-3.585664367675781250e+01
-2.433638000488281250e+01
2.934827880859375000e+02
3.408418579101562500e+02
4.672856140136718750e+02
3.873619079589843750e+02
2.849082641601562500e+02
2.357669067382812500e+02
6.693824768066406250e+01
-2.037039489746093750e+02
-4.021520385742187500e+02
-3.936436157226562500e+02
-3.765044555664062500e+02
-2.392675933837890625e+02
-3.119117126464843750e+02
-1.331484222412109375e+01
1.749294738769531250e+02
2.701748352050781250e+02
2.820785522460937500e+02
3.004013061523437500e+02
2.913587341308593750e+02
1.561615905761718750e+02
1.073629188537597656e+01
-6.695542144775390625e+01
-1.746996154785156250e+02
-6.483846282958984375e+01
-2.753163719177246094e+01
4.828555297851562500e+01
2.176368255615234375e+02
4.043149719238281250e+02
4.135304260253906250e+02
4.349843444824218750e+02
3.077551879882812500e+02
2.315914764404296875e+02
-8.764296770095825195e-01
-6.908360290527343750e+01
-1.096405487060546875e+02
-9.453765106201171875e+01
-2.460584402084350586e+00
1.234953155517578125e+02
2.751669921875000000e+02
2.992339172363281250e+02
1.144672470092773438e+02
5.827681350708007812e+01
4.577655029296875000e+01
-5.850289344787597656e+00
6.098068237304687500e+01
2.206513519287109375e+02
2.134911499023437500e+02
1.924501190185546875e+02
1.217274627685546875e+02
-4.754956817626953125e+01
-1.010098648071289062e+02
-1.053048782348632812e+02
-5.629866409301757812e+01
9.898634338378906250e+01
1.818142089843750000e+02
1.907059478759765625e+02
2.110821685791015625e+02
8.145723724365234375e+01
-9.012500000000000000e+01
-1.223986511230468750e+02
-1.285387420654296875e+02
-1.024186096191406250e+02
5.937290573120117188e+01
2.284366455078125000e+02
3.247109680175781250e+02
3.223713073730468750e+02
2.457678985595703125e+02
1.579904022216796875e+02
5.098880004882812500e+01
-2.600751686096191406e+01
1.805312728881835938e+01
6.304393768310546875e+01
2.101155242919921875e+02
1.776900939941406250e+02
1.176905593872070312e+02
1.350178070068359375e+02
-6.391758918762207031e+00
-1.527032928466796875e+02
-1.389631652832031250e+02
-5.546608734130859375e+01
1.710510063171386719e+01
2.247189178466796875e+02
2.961495666503906250e+02
3.656728210449218750e+02
1.854252624511718750e+02
1.673347320556640625e+02
3.068851852416992188e+01
-5.870105743408203125e+01
-4.366630554199218750e+01
-2.092109107971191406e+01
1.544775695800781250e+02
7.238282012939453125e+01
2.372870788574218750e+02
3.128409118652343750e+02
2.399620819091796875e+02
2.263126678466796875e+02
-7.887439727783203125e+01
-2.829119682312011719e+01
-8.043347167968750000e+01
-6.941504669189453125e+01
1.222762374877929688e+02
1.130986251831054688e+02
8.423883819580078125e+01
2.936676788330078125e+01
2.291780853271484375e+01
-3.107073783874511719e+00
1.258340530395507812e+02
2.478002471923828125e+02
1.643273162841796875e+02
6.363172531127929688e+01
-5.158483886718750000e+01
-1.142166805267333984e+01
-4.433128738403320312e+01
1.296788024902343750e+02
1.479549713134765625e+02
1.062557601928710938e+02
1.004073638916015625e+02
-8.557615661621093750e+01
-1.389436035156250000e+02
-1.409866790771484375e+02
-5.134970855712890625e+01
6.498324584960937500e+01
2.541955261230468750e+02
2.615381164550781250e+02
3.394594116210937500e+02
3.398765869140625000e+02
1.867520294189453125e+02
8.680501556396484375e+01
-1.186426773071289062e+02
-1.515713806152343750e+02
-1.694177856445312500e+02
-1.480004425048828125e+02
-3.737932968139648438e+01
9.459487152099609375e+01
3.067047119140625000e+02
4.570185546875000000e+02
5.642894287109375000e+02
4.886382141113281250e+02
5.159434814453125000e+02
2.737765502929687500e+02
2.019691009521484375e+02
-1.489719390869140625e+01
-1.878119506835937500e+02
-3.653716735839843750e+02
-3.123529052734375000e+02
-2.040877380371093750e+02
-1.248649520874023438e+02
9.653981018066406250e+01
1.298549499511718750e+02
1.696049957275390625e+02
1.647859191894531250e+02
-4.809794425964355469e+00
3.564408493041992188e+01
8.855032920837402344e+00
1.684421386718750000e+02
1.416237335205078125e+02
1.151600036621093750e+02
4.613855481147766113e-01
-6.486125946044921875e+01
4.085034179687500000e+01
7.248048400878906250e+01
2.583153686523437500e+02
3.031425781250000000e+02
2.977608642578125000e+02
2.667512817382812500e+02
1.020213470458984375e+02
7.679347515106201172e+00
-4.529155731201171875e+01
-3.613343429565429688e+01
-1.016857242584228516e+01
-2.837596893310546875e+00
1.946809692382812500e+02
2.640559082031250000e+02
2.361218719482421875e+02
1.878441009521484375e+02
1.348066864013671875e+02
-4.850072479248046875e+01
-1.407175445556640625e+02
-4.275862503051757812e+01
-6.138393020629882812e+01
8.138522338867187500e+01
1.951894378662109375e+02
1.754008941650390625e+02
2.269246215820312500e+02
1.625829467773437500e+02
6.751873493194580078e+00
5.486233139038085938e+01
4.131055068969726562e+01
1.125761718750000000e+02
7.681993865966796875e+01
9.812055206298828125e+01
-1.586065006256103516e+01
2.921667861938476562e+01
2.749776840209960938e+01
2.074230804443359375e+02
1.643250885009765625e+02
1.772397766113281250e+02
1.461246795654296875e+02
-3.774407958984375000e+01
-6.951984405517578125e+01
-5.217884826660156250e+01
-3.476929092407226562e+01
1.310293731689453125e+02
1.816908874511718750e+02
2.081602172851562500e+02
8.523727416992187500e+01
-2.525754547119140625e+01
-3.975364685058593750e+01
-9.778843688964843750e+01
4.432975769042968750e+00
1.502307739257812500e+02
1.660766143798828125e+02
1.821251678466796875e+02
2.203253173828125000e+01
9.059941101074218750e+01
2.605245208740234375e+01
5.198026657104492188e+01
1.458586883544921875e+02
9.207121276855468750e+01
-1.814913749694824219e+01
3.363531875610351562e+01
1.228741912841796875e+02
1.418996429443359375e+02
1.657028503417968750e+02
3.510705184936523438e+01
3.241381072998046875e+01
2.110981941223144531e+01
1.601163940429687500e+02
2.248563537597656250e+02
5.275362396240234375e+01
1.321569061279296875e+02
6.631351470947265625e+01
-2.682363986968994141e+00
3.603755950927734375e+01
1.800245666503906250e+01
1.694712524414062500e+02
1.553181610107421875e+02
1.523785247802734375e+02
-1.124927330017089844e+01
4.450373840332031250e+01
8.434049987792968750e+01
9.148113250732421875e+01
-1.436175689697265625e+02
5.844925880432128906e+00
3.277199554443359375e+01
8.648100280761718750e+01
1.814818572998046875e+02
3.022761840820312500e+02
2.750086364746093750e+02
2.330691986083984375e+02
1.299842834472656250e+02
-1.469703167676925659e-01
-7.173370361328125000e+01
-1.401262817382812500e+02
-8.061540222167968750e+01
2.150640869140625000e+01
2.590309143066406250e+02
2.590645141601562500e+02
2.448489990234375000e+02
2.010858154296875000e+02
1.087400894165039062e+02
-2.412483215332031250e+01
-1.573771057128906250e+02
-1.683411560058593750e+02
-6.998127746582031250e+01
4.842186737060546875e+01
1.442905731201171875e+02
2.888728637695312500e+02
2.433918457031250000e+02
2.026243743896484375e+02
1.618327026367187500e+02
1.105421352386474609e+01
-1.024474639892578125e+02
-6.551460266113281250e+01
-4.259371185302734375e+01
3.897893905639648438e+01
2.682326354980468750e+02
2.292779998779296875e+02
2.630563659667968750e+02
2.211541442871093750e+02
6.239592361450195312e+01
6.694919586181640625e+01
1.576210479736328125e+02
6.373400497436523438e+01
7.949109649658203125e+01
5.677595520019531250e+01
1.115184478759765625e+02
4.188872528076171875e+01
7.256352233886718750e+01
1.229752655029296875e+02
1.201169509887695312e+02
1.076973876953125000e+02
5.844647598266601562e+01
-2.022348175048828125e+02
-1.774014739990234375e+02
-1.763904571533203125e+02
-7.493772888183593750e+01
-4.616745758056640625e+01
1.810130920410156250e+02
2.362276306152343750e+02
3.114138183593750000e+02
3.143099365234375000e+02
1.098789215087890625e+02
1.118373012542724609e+01
-7.927651977539062500e+01
-2.072918510437011719e+01
-3.233991622924804688e+01
1.553476867675781250e+02
1.072914657592773438e+02
7.652204895019531250e+01
1.383813934326171875e+02
1.324845123291015625e+02
5.709555435180664062e+01
-8.088915252685546875e+01
6.408991241455078125e+01
1.022873764038085938e+02
9.436208343505859375e+01
4.004748153686523438e+01
5.833974838256835938e+01
5.394956207275390625e+01
2.667392578125000000e+02
3.574978637695312500e+02
2.779417114257812500e+02
2.753604125976562500e+02
1.888041229248046875e+02
-2.807164955139160156e+01
-1.877310791015625000e+02
-2.074237060546875000e+02
-1.254827346801757812e+02
-5.680878829956054688e+01
6.938012695312500000e+01
3.419398498535156250e+02
4.235111999511718750e+02
3.940806579589843750e+02
3.831591491699218750e+02
2.846947631835937500e+02
1.570783538818359375e+02
1.164419746398925781e+01
-8.339397430419921875e+01
-1.307810211181640625e+02
-1.017018280029296875e+02
-2.606027412414550781e+01
1.489075317382812500e+02
2.367713775634765625e+02
1.671806945800781250e+02
1.525082702636718750e+02
-1.795171141624450684e+00
-5.204975128173828125e+01
-7.848889923095703125e+01
4.155728530883789062e+01
2.856600646972656250e+02
2.550324249267578125e+02
2.399906463623046875e+02
1.804086151123046875e+02
1.643282012939453125e+02
-7.581092071533203125e+01
-2.297351531982421875e+02
-1.892433319091796875e+02
-1.149376754760742188e+02
-6.703426361083984375e+01
1.023914642333984375e+02
1.698044891357421875e+02
1.678265228271484375e+02
9.148683166503906250e+01
7.187934875488281250e+01
1.270272750854492188e+02
-2.096352767944335938e+01
-6.733196258544921875e+01
-1.408289337158203125e+02
9.635774993896484375e+01
6.387538909912109375e+01
2.712801513671875000e+02
1.762766265869140625e+02
1.674973602294921875e+02
4.499626159667968750e+01
4.750141143798828125e+01
1.522400760650634766e+01
1.259059371948242188e+02
3.019945716857910156e+01
1.341699523925781250e+02
5.588867568969726562e+01
1.306842346191406250e+02
1.625209197998046875e+02
9.967271423339843750e+01
-1.162963714599609375e+02
-6.418654632568359375e+01
-1.229981231689453125e+02
-1.554006385803222656e+01
9.162462615966796875e+01
7.268460845947265625e+01
2.148928985595703125e+02
2.369933471679687500e+02
2.004369964599609375e+02
3.406589508056640625e+01
5.009004211425781250e+01
5.442945098876953125e+01
2.061182708740234375e+02
1.979815673828125000e+02
2.048309478759765625e+02
-9.203304290771484375e+00
1.512246847152709961e+00
7.052839660644531250e+01
1.973805084228515625e+02
1.627023315429687500e+02
1.590782470703125000e+02
3.780533599853515625e+01
1.112611198425292969e+01
5.031258392333984375e+01
1.139820632934570312e+02
8.854072570800781250e+01
2.192626037597656250e+02
-4.371057128906250000e+01
-1.808910942077636719e+01
-1.825302886962890625e+01
5.560071945190429688e+01
2.722315063476562500e+02
2.511526184082031250e+02
3.418460083007812500e+02
2.961752014160156250e+02
1.173628234863281250e+02
-2.241209411621093750e+01
-3.134066390991210938e+01
-8.181037139892578125e+01
-2.323983573913574219e+01
7.849539947509765625e+01
1.021870574951171875e+02
5.807654190063476562e+01
1.145349121093750000e+02
2.527756690979003906e+01
8.186774444580078125e+01
1.589747924804687500e+02
1.315065765380859375e+02
4.019357299804687500e+01
1.298415222167968750e+02
3.837175750732421875e+01
2.240940093994140625e+01
1.389455413818359375e+02
1.641397552490234375e+02
2.203238296508789062e+01
4.372706222534179688e+01
9.630279541015625000e+01
1.330649871826171875e+02
-2.563501739501953125e+01
1.377415313720703125e+02
3.014236259460449219e+01
5.146254730224609375e+01
1.263762359619140625e+02
1.176583099365234375e+02
6.756042480468750000e+01
